{"learner":{"attributes":{"scikit_learn":"{\"_estimator_type\": \"regressor\"}"},"feature_names":["año","mes","Abancay","Arequipa","Ayacucho","Cajamarca","Callao","Cerro de Pasco","Chachapoyas","Chiclayo","Cusco","Huancavelica","Huancayo","Huaraz","Huánuco","Ica","Iquitos","Lima","Moquegua","Moyobamba","Piura","Pucallpa","Puerto Maldonado","Puno","Tacna","Trujillo","Tumbes","mes_sin","mes_cos","Invierno","Otoño","Primavera","Verano"],"feature_types":["int","int","float","float","float","float","float","float","float","float","float","float","float","float","float","float","float","float","float","float","float","float","float","float","float","float","float","float","float","float","float","float","float"],"gradient_booster":{"model":{"gbtree_model_param":{"num_parallel_tree":"1","num_trees":"100"},"iteration_indptr":[0,1,2,3,4,5,6,7,8,9,10,11,12,13,14,15,16,17,18,19,20,21,22,23,24,25,26,27,28,29,30,31,32,33,34,35,36,37,38,39,40,41,42,43,44,45,46,47,48,49,50,51,52,53,54,55,56,57,58,59,60,61,62,63,64,65,66,67,68,69,70,71,72,73,74,75,76,77,78,79,80,81,82,83,84,85,86,87,88,89,90,91,92,93,94,95,96,97,98,99,100],"tree_info":[0,0,0,0,0,0,0,0,0,0,0,0,0,0,0,0,0,0,0,0,0,0,0,0,0,0,0,0,0,0,0,0,0,0,0,0,0,0,0,0,0,0,0,0,0,0,0,0,0,0,0,0,0,0,0,0,0,0,0,0,0,0,0,0,0,0,0,0,0,0,0,0,0,0,0,0,0,0,0,0,0,0,0,0,0,0,0,0,0,0,0,0,0,0,0,0,0,0,0,0],"trees":[{"base_weights":[-1.6029386E-3,5.192627E-1,-1.2395397E1,9.1037226E-1,-8.546049E0,-1.2771266E1,-1.202239E1,1.2947906E0,-7.5390525E0,-8.906203E0,-8.028294E0,-1.3070727E1,-1.1836787E1,-1.2167177E0,-1.1716529E0,1.6521217E0,-6.2307663E0,-8.099496E0,-6.737769E0,-9.157158E0,-7.780928E0,-8.350047E0,-7.8119707E0,-1.262768E0,-1.3288655E1,-1.2116672E0,-1.1132267E0,2.0252573E0,-5.752839E0,-6.767606E0,-4.500937E0,-8.28786E0,-7.8479996E0,-6.610599E0,-7.231868E-1,-8.7729025E-1,-9.440692E0,-8.2316065E0,-7.0767975E0,-8.394993E-1,-7.42736E-1,-7.9220146E-1,-6.5964466E-1,-1.3614459E0,-1.2958229E0,2.3341218E-1,-3.7636256E-1,-6.2928057E-1,-4.0165028E-1,-7.030854E-1,-6.2406975E-1,-3.631227E-1,-5.073414E-1,-8.3269185E-1,-7.5529116E-1,-7.704827E-1,-8.2897055E-1,-7.228082E-1,-6.3994694E-1,-9.6330035E-1,-8.8360834E-1,-8.4140205E-1,-7.6400983E-1,-7.5809777E-1,-6.5626425E-1],"categories":[],"categories_nodes":[],"categories_segments":[],"categories_sizes":[],"default_left":[0,0,0,0,0,0,0,0,0,0,0,0,0,0,0,0,0,0,0,0,0,0,0,0,0,0,0,0,0,0,0,0,0,0,0,0,0,0,0,0,0,0,0,0,0,0,0,0,0,0,0,0,0,0,0,0,0,0,0,0,0,0,0,0,0],"id":0,"left_children":[1,3,5,7,9,11,13,15,17,19,21,23,25,-1,-1,27,29,31,33,35,37,39,41,-1,43,-1,-1,45,47,49,51,53,55,57,-1,-1,59,61,63,-1,-1,-1,-1,-1,-1,-1,-1,-1,-1,-1,-1,-1,-1,-1,-1,-1,-1,-1,-1,-1,-1,-1,-1,-1,-1],"loss_changes":[1.503299E6,7.923595E5,1.163375E3,6.958759E5,1.6520625E3,1.149875E3,6.69375E1,5.510504E5,4.132125E3,1.4655625E3,1.9940625E2,1.72125E2,9.0296875E1,0E0,0E0,5.405398E5,8.5956875E3,1.9459375E2,1.936875E2,4.013125E2,2.5876953E2,4.21875E-1,2.5392188E2,0E0,7.559375E1,0E0,0E0,3.3300744E5,8.77375E3,9.39125E2,1.0784297E3,2.6546875E1,8.575E1,3.5370312E2,0E0,0E0,2.1067188E2,7.7734375E-1,5.3160156E1,0E0,0E0,0E0,0E0,0E0,0E0,0E0,0E0,0E0,0E0,0E0,0E0,0E0,0E0,0E0,0E0,0E0,0E0,0E0,0E0,0E0,0E0,0E0,0E0,0E0,0E0],"parents":[2147483647,0,0,1,1,2,2,3,3,4,4,5,5,6,6,7,7,8,8,9,9,10,10,11,11,12,12,15,15,16,16,17,17,18,18,19,19,20,20,21,21,22,22,24,24,27,27,28,28,29,29,30,30,31,31,32,32,33,33,36,36,37,37,38,38],"right_children":[2,4,6,8,10,12,14,16,18,20,22,24,26,-1,-1,28,30,32,34,36,38,40,42,-1,44,-1,-1,46,48,50,52,54,56,58,-1,-1,60,62,64,-1,-1,-1,-1,-1,-1,-1,-1,-1,-1,-1,-1,-1,-1,-1,-1,-1,-1,-1,-1,-1,-1,-1,-1,-1,-1],"split_conditions":[1E0,1E0,6.123234E-17,1E0,5E-1,2.017E3,1.1E1,1E0,8E0,2.019E3,3E0,6E0,2.023E3,-1.2167177E0,-1.1716529E0,1E0,2.017E3,5E0,1.2E1,6E0,7E0,2.024E3,2.022E3,-1.262768E0,8E0,-1.2116672E0,-1.1132267E0,1E0,2.017E3,9E0,-2.4492937E-16,2.024E3,2.017E3,9E0,-7.231868E-1,-8.7729025E-1,9E0,2.024E3,2.022E3,-8.394993E-1,-7.42736E-1,-7.9220146E-1,-6.5964466E-1,-1.3614459E0,-1.2958229E0,2.3341218E-1,-3.7636256E-1,-6.2928057E-1,-4.0165028E-1,-7.030854E-1,-6.2406975E-1,-3.631227E-1,-5.073414E-1,-8.3269185E-1,-7.5529116E-1,-7.704827E-1,-8.2897055E-1,-7.228082E-1,-6.3994694E-1,-9.6330035E-1,-8.8360834E-1,-8.4140205E-1,-7.6400983E-1,-7.5809777E-1,-6.5626425E-1],"split_indices":[7,11,28,23,28,0,1,10,1,0,1,1,0,0,0,12,0,1,1,1,1,0,0,0,1,0,0,13,0,1,27,0,0,1,0,0,1,0,0,0,0,0,0,0,0,0,0,0,0,0,0,0,0,0,0,0,0,0,0,0,0,0,0,0,0],"split_type":[0,0,0,0,0,0,0,0,0,0,0,0,0,0,0,0,0,0,0,0,0,0,0,0,0,0,0,0,0,0,0,0,0,0,0,0,0,0,0,0,0,0,0,0,0,0,0,0,0,0,0,0,0,0,0,0,0,0,0,0,0,0,0,0,0],"sum_hessian":[2.32869E5,2.23478E5,9.391E3,2.14236E5,9.242E3,4.661E3,4.73E3,2.04914E5,9.322E3,5.441E3,3.801E3,3.52E3,1.141E3,3.184E3,1.546E3,1.95626E5,9.288E3,5.48E3,3.842E3,4.443E3,9.98E2,1.513E3,2.288E3,1.18E3,2.34E3,8.05E2,3.36E2,1.86242E5,9.384E3,7.086E3,2.202E3,3.115E3,2.365E3,3.067E3,7.75E2,1.9E3,2.543E3,6.02E2,3.96E2,1.435E3,7.8E1,2.093E3,1.95E2,1.158E3,1.182E3,1.76809E5,9.433E3,7.156E3,2.228E3,4.717E3,2.369E3,8.77E2,1.325E3,2.948E3,1.67E2,1.8E3,5.65E2,7.73E2,2.294E3,1.918E3,6.25E2,4.5E2,1.52E2,1.93E2,2.03E2],"tree_param":{"num_deleted":"0","num_feature":"33","num_nodes":"65","size_leaf_vector":"1"}},{"base_weights":[4.5134546E-3,4.7287786E-1,-1.1146646E1,1.1460984E-1,8.734367E0,-1.1494004E1,-1.0802725E1,4.6805084E-1,-7.701552E0,1.0553522E1,7.416744E0,-1.1777435E1,-1.0717094E1,-1.0930072E1,-1.0534351E0,8.1230915E-1,-6.7836695E0,-8.019245E0,-7.253189E0,1.0889973E1,9.244343E-1,6.8726788E0,8.747273E0,-1.1388916E0,-1.1962886E1,-1.0952908E0,-1.0007154E0,-1.1194389E0,-1.0775225E0,4.908877E-1,7.2331834E0,-7.2783E0,-6.0795913E0,-8.249607E0,-6.992335E0,-7.5409513E0,-7.055069E0,1.0190613E1,1.1273123E1,7.4421334E0,6.4879017E0,8.0659735E-1,9.415663E0,-1.2131627E0,-1.1442364E0,1.5480091E-2,6.8766284E-1,6.2205714E-1,7.574278E-1,-7.453593E-1,-7.0406586E-1,-5.9634465E-1,-6.526023E-1,-7.898945E-1,-8.510065E-1,-7.413866E-1,-6.322403E-1,-7.5804967E-1,-6.704151E-1,-7.1654147E-1,-6.1802447E-1,1.1590189E0,9.931675E-1,1.1010283E0,1.1829919E0,7.192775E-1,7.963367E-1,6.168393E-1,7.16804E-1,9.128222E-1,1.0013214E0],"categories":[],"categories_nodes":[],"categories_segments":[],"categories_sizes":[],"default_left":[0,0,0,0,0,0,0,0,0,0,0,0,0,0,0,0,0,0,0,0,0,0,0,0,0,0,0,0,0,0,0,0,0,0,0,0,0,0,0,0,0,0,0,0,0,0,0,0,0,0,0,0,0,0,0,0,0,0,0,0,0,0,0,0,0,0,0,0,0,0,0],"id":1,"left_children":[1,3,5,7,9,11,13,15,17,19,21,23,25,27,-1,29,31,33,35,37,-1,39,41,-1,43,-1,-1,-1,-1,45,47,49,51,53,55,57,59,61,63,65,67,-1,69,-1,-1,-1,-1,-1,-1,-1,-1,-1,-1,-1,-1,-1,-1,-1,-1,-1,-1,-1,-1,-1,-1,-1,-1,-1,-1,-1,-1],"loss_changes":[1.2179688E6,6.624144E5,9.98875E2,5.9257375E5,2.221825E4,9.00125E2,4.68125E1,5.1233512E5,1.2636875E3,1.619375E3,3.8474688E3,1.090625E2,1.00828125E2,9.84375E0,0E0,4.0434162E5,3.1948438E3,1.2249688E3,1.6679688E2,7.160625E2,0E0,7.9225E2,6.358047E2,0E0,6.190625E1,0E0,0E0,0E0,0E0,4.004365E5,3.178875E3,1.7490625E2,1.6040625E2,3.3671875E2,2.3552344E2,7.65625E-1,1.7783594E2,2.864375E2,1.615625E2,1.4288281E2,4.549453E2,0E0,4.3085938E1,0E0,0E0,0E0,0E0,0E0,0E0,0E0,0E0,0E0,0E0,0E0,0E0,0E0,0E0,0E0,0E0,0E0,0E0,0E0,0E0,0E0,0E0,0E0,0E0,0E0,0E0,0E0,0E0],"parents":[2147483647,0,0,1,1,2,2,3,3,4,4,5,5,6,6,7,7,8,8,9,9,10,10,11,11,12,12,13,13,15,15,16,16,17,17,18,18,19,19,21,21,22,22,24,24,29,29,30,30,31,31,32,32,33,33,34,34,35,35,36,36,37,37,38,38,39,39,40,40,42,42],"right_children":[2,4,6,8,10,12,14,16,18,20,22,24,26,28,-1,30,32,34,36,38,-1,40,42,-1,44,-1,-1,-1,-1,46,48,50,52,54,56,58,60,62,64,66,68,-1,70,-1,-1,-1,-1,-1,-1,-1,-1,-1,-1,-1,-1,-1,-1,-1,-1,-1,-1,-1,-1,-1,-1,-1,-1,-1,-1,-1,-1],"split_conditions":[1E0,1E0,6.123234E-17,1E0,6E0,2.016E3,1.1E1,1E0,5E-1,5E0,1.1E1,6E0,2.023E3,2.003E3,-1.0534351E0,1E0,8E0,2.019E3,3E0,2.003E3,9.244343E-1,1E0,1.2E1,-1.1388916E0,9E0,-1.0952908E0,-1.0007154E0,-1.1194389E0,-1.0775225E0,1E0,-5E-1,5E0,1.2E1,6E0,7E0,2.024E3,2.021E3,1.992E3,2.019E3,2.014E3,2.014E3,8.0659735E-1,2.014E3,-1.2131627E0,-1.1442364E0,1.5480091E-2,6.8766284E-1,6.2205714E-1,7.574278E-1,-7.453593E-1,-7.0406586E-1,-5.9634465E-1,-6.526023E-1,-7.898945E-1,-8.510065E-1,-7.413866E-1,-6.322403E-1,-7.5804967E-1,-6.704151E-1,-7.1654147E-1,-6.1802447E-1,1.1590189E0,9.931675E-1,1.1010283E0,1.1829919E0,7.192775E-1,7.963367E-1,6.168393E-1,7.16804E-1,9.128222E-1,1.0013214E0],"split_indices":[7,20,28,11,1,0,1,23,28,1,1,1,0,0,0,21,1,0,1,0,0,29,1,0,1,0,0,0,0,22,28,1,1,1,1,0,0,0,0,0,0,0,0,0,0,0,0,0,0,0,0,0,0,0,0,0,0,0,0,0,0,0,0,0,0,0,0,0,0,0,0],"split_type":[0,0,0,0,0,0,0,0,0,0,0,0,0,0,0,0,0,0,0,0,0,0,0,0,0,0,0,0,0,0,0,0,0,0,0,0,0,0,0,0,0,0,0,0,0,0,0,0,0,0,0,0,0,0,0,0,0,0,0,0,0,0,0,0,0,0,0,0,0,0,0],"sum_hessian":[2.332E5,2.23801E5,9.399E3,2.145E5,9.301E3,4.66E3,4.739E3,2.05221E5,9.279E3,3.904E3,5.397E3,3.404E3,1.256E3,3.187E3,1.552E3,1.95921E5,9.3E3,5.421E3,3.858E3,3.1E3,8.04E2,3.835E3,1.562E3,1.12E3,2.284E3,9.32E2,3.24E2,1.151E3,2.036E3,1.86582E5,9.339E3,5.457E3,3.843E3,4.422E3,9.99E2,1.558E3,2.3E3,1.107E3,1.993E3,1.539E3,2.296E3,7.8E2,7.82E2,1.708E3,5.76E2,1.77254E5,9.328E3,2.358E3,6.981E3,3.123E3,2.334E3,3.061E3,7.82E2,1.898E3,2.524E3,6.07E2,3.92E2,1.48E3,7.8E1,2.036E3,2.64E2,1.66E2,9.41E2,1.368E3,6.25E2,1.051E3,4.88E2,1.569E3,7.27E2,5.39E2,2.43E2],"tree_param":{"num_deleted":"0","num_feature":"33","num_nodes":"71","size_leaf_vector":"1"}},{"base_weights":[5.606377E-4,4.2348307E-1,-1.004157E1,1.00964606E-1,7.861962E0,-1.0340233E1,-9.739118E0,-2.245082E-1,7.198372E0,9.494947E0,6.6677356E0,-1.0549742E1,-1.0125002E0,-9.8521405E-1,-9.5026207E-1,-5.5276954E-1,6.6399307E0,6.0727434E0,7.5767183E0,9.8012E0,8.289795E-1,6.170996E0,7.8741956E0,-1.0207584E0,-1.0719764E0,-9.083501E-1,6.5068474E0,6.962969E-1,6.405463E0,6.429826E-1,5.8902484E-1,7.0859426E-1,7.7168745E-1,9.9067706E-1,9.460818E-1,6.708821E-1,5.810613E0,7.2618E-1,8.457429E-1,-1.2828402E-1,6.176119E-1,5.58762E-1,6.815865E-1,6.268512E-1,7.210093E-1,5.592798E-1,6.246914E-1],"categories":[],"categories_nodes":[],"categories_segments":[],"categories_sizes":[],"default_left":[0,0,0,0,0,0,0,0,0,0,0,0,0,0,0,0,0,0,0,0,0,0,0,0,0,0,0,0,0,0,0,0,0,0,0,0,0,0,0,0,0,0,0,0,0,0,0],"id":2,"left_children":[1,3,5,7,9,11,13,15,17,19,21,23,-1,-1,-1,25,27,29,31,33,-1,35,37,-1,-1,39,41,-1,43,-1,-1,-1,-1,-1,-1,-1,45,-1,-1,-1,-1,-1,-1,-1,-1,-1,-1],"loss_changes":[9.904867E5,5.3688906E5,7.506875E2,4.9548553E5,1.8073125E4,1.063125E2,3.203125E1,4.621391E5,3.959375E3,1.36775E3,3.1726406E3,2.85E1,0E0,0E0,0E0,4.9134206E5,6.6434375E2,1.1663281E2,4.2921875E2,1.85625E1,0E0,6.998594E2,4.971875E2,0E0,0E0,4.9439575E5,2.6280938E3,0E0,5.538125E2,0E0,0E0,0E0,0E0,0E0,0E0,0E0,1.826875E2,0E0,0E0,0E0,0E0,0E0,0E0,0E0,0E0,0E0,0E0],"parents":[2147483647,0,0,1,1,2,2,3,3,4,4,5,5,6,6,7,7,8,8,9,9,10,10,11,11,15,15,16,16,17,17,18,18,19,19,21,21,22,22,25,25,26,26,28,28,36,36],"right_children":[2,4,6,8,10,12,14,16,18,20,22,24,-1,-1,-1,26,28,30,32,34,-1,36,38,-1,-1,40,42,-1,44,-1,-1,-1,-1,-1,-1,-1,46,-1,-1,-1,-1,-1,-1,-1,-1,-1,-1],"split_conditions":[1E0,1E0,6.123234E-17,1E0,6E0,-5E-1,1.1E1,1E0,-5E-1,5E0,1.1E1,6E0,-1.0125002E0,-9.8521405E-1,-9.5026207E-1,1E0,6E0,6E0,-1.8369701E-16,4E0,8.289795E-1,1E0,1.2E1,-1.0207584E0,-1.0719764E0,1E0,-5E-1,6.962969E-1,1.2E1,6.429826E-1,5.8902484E-1,7.0859426E-1,7.7168745E-1,9.9067706E-1,9.460818E-1,6.708821E-1,9E0,7.2618E-1,8.457429E-1,-1.2828402E-1,6.176119E-1,5.58762E-1,6.815865E-1,6.268512E-1,7.210093E-1,5.592798E-1,6.246914E-1],"split_indices":[7,20,28,16,1,28,1,26,28,1,1,1,0,0,0,21,1,1,28,1,0,29,1,0,0,22,28,0,1,0,0,0,0,0,0,0,1,0,0,0,0,0,0,0,0,0,0],"split_type":[0,0,0,0,0,0,0,0,0,0,0,0,0,0,0,0,0,0,0,0,0,0,0,0,0,0,0,0,0,0,0,0,0,0,0,0,0,0,0,0,0,0,0,0,0,0,0],"sum_hessian":[2.33216E5,2.23792E5,9.424E3,2.14493E5,9.299E3,4.725E3,4.699E3,2.05089E5,9.404E3,3.925E3,5.374E3,2.37E3,2.355E3,3.152E3,1.547E3,1.9573E5,9.359E3,2.37E3,7.034E3,3.124E3,8.01E2,3.811E3,1.563E3,8.07E2,1.563E3,1.86345E5,9.385E3,3.924E3,5.435E3,7.9E2,1.58E3,1.574E3,5.46E3,2.363E3,7.61E2,1.522E3,2.289E3,7.69E2,7.94E2,1.7699E5,9.355E3,2.366E3,7.019E3,4.652E3,7.83E2,1.536E3,7.53E2],"tree_param":{"num_deleted":"0","num_feature":"33","num_nodes":"47","size_leaf_vector":"1"}},{"base_weights":[-3.689116E-3,3.760846E-1,-9.027101E0,6.8810207E-1,-6.797945E0,-9.308223E0,-8.74976E0,9.9149275E-1,-5.985752E0,-7.089037E0,-6.3860526E0,-9.506024E0,-9.107022E-1,-8.848279E-1,-8.5408545E-1,1.3005639E0,-5.496851E0,-6.4346175E0,-5.3472257E0,-7.354213E0,-6.880707E-1,-6.641371E-1,-6.2102634E-1,-9.2032427E-1,-9.6533155E-1,1.6180453E0,-5.0641418E0,-5.802056E-1,-5.067311E0,-6.606384E-1,-6.204002E-1,-5.7912344E-1,-5.230482E0,-7.078045E-1,-7.4875826E-1,1.3337024E-1,7.0448655E-1,-5.3870046E-1,-4.6157247E-1,-4.992096E-1,-5.3637433E-1,-5.0370204E-1,-5.7804555E-1],"categories":[],"categories_nodes":[],"categories_segments":[],"categories_sizes":[],"default_left":[0,0,0,0,0,0,0,0,0,0,0,0,0,0,0,0,0,0,0,0,0,0,0,0,0,0,0,0,0,0,0,0,0,0,0,0,0,0,0,0,0,0,0],"id":3,"left_children":[1,3,5,7,9,11,13,15,17,19,21,23,-1,-1,-1,25,27,29,31,33,-1,-1,-1,-1,-1,35,37,-1,39,-1,-1,-1,41,-1,-1,-1,-1,-1,-1,-1,-1,-1,-1],"loss_changes":[7.978334E5,5.0010184E5,6.516875E2,4.335206E5,1.0712188E3,9.865625E1,2.215625E1,4.106948E5,2.6339375E3,2.503125E2,1.3226562E2,1.48125E1,0E0,0E0,0E0,3.9501794E5,1.1914062E3,1.75375E2,1.6921875E2,3.4742188E1,0E0,0E0,0E0,0E0,0E0,2.873072E5,1.3198438E3,0E0,5.9640625E1,0E0,0E0,0E0,2.9625E2,0E0,0E0,0E0,0E0,0E0,0E0,0E0,0E0,0E0,0E0],"parents":[2147483647,0,0,1,1,2,2,3,3,4,4,5,5,6,6,7,7,8,8,9,9,10,10,11,11,15,15,16,16,17,17,18,18,19,19,25,25,26,26,28,28,32,32],"right_children":[2,4,6,8,10,12,14,16,18,20,22,24,-1,-1,-1,26,28,30,32,34,-1,-1,-1,-1,-1,36,38,-1,40,-1,-1,-1,42,-1,-1,-1,-1,-1,-1,-1,-1,-1,-1],"split_conditions":[1E0,1E0,6.123234E-17,1E0,5E-1,-5E-1,1.1E1,1E0,8E0,-5E-1,3E0,6E0,-9.107022E-1,-8.848279E-1,-8.5408545E-1,1E0,8E0,5E0,9E0,6E0,-6.880707E-1,-6.641371E-1,-6.2102634E-1,-9.2032427E-1,-9.6533155E-1,1E0,8E0,-5.802056E-1,1.2E1,-6.606384E-1,-6.204002E-1,-5.7912344E-1,1.2E1,-7.078045E-1,-7.4875826E-1,1.3337024E-1,7.0448655E-1,-5.3870046E-1,-4.6157247E-1,-4.992096E-1,-5.3637433E-1,-5.0370204E-1,-5.7804555E-1],"split_indices":[7,11,28,23,28,28,1,10,1,28,1,1,0,0,0,12,1,1,1,1,0,0,0,0,0,20,1,0,1,0,0,0,1,0,0,0,0,0,0,0,0,0,0],"split_type":[0,0,0,0,0,0,0,0,0,0,0,0,0,0,0,0,0,0,0,0,0,0,0,0,0,0,0,0,0,0,0,0,0,0,0,0,0,0,0,0,0,0,0],"sum_hessian":[2.32816E5,2.23414E5,9.402E3,2.14103E5,9.311E3,4.653E3,4.749E3,2.04794E5,9.309E3,5.446E3,3.865E3,2.323E3,2.33E3,3.199E3,1.55E3,1.95483E5,9.311E3,5.461E3,3.848E3,2.381E3,3.065E3,1.561E3,2.304E3,7.81E2,1.542E3,1.86196E5,9.287E3,5.436E3,3.875E3,3.114E3,2.347E3,7.91E2,3.057E3,7.93E2,1.588E3,1.76927E5,9.269E3,5.393E3,3.894E3,3.105E3,7.7E2,2.269E3,7.88E2],"tree_param":{"num_deleted":"0","num_feature":"33","num_nodes":"43","size_leaf_vector":"1"}},{"base_weights":[6.8597065E-4,-2.656208E-1,6.35355E0,-5.53252E-1,6.364466E0,5.3686824E0,6.6859E0,-8.422446E-1,5.8401313E0,7.832243E0,5.2929544E0,5.0075006E0,5.6184077E0,6.6115074E0,7.6854854E0,-1.1561439E0,5.7325606E0,6.2724233E0,4.4850044E0,8.094339E0,6.7914796E0,4.8468976E0,6.3744025E0,5.532867E0,4.731415E0,5.533631E-1,6.2158184E0,6.19792E0,6.7305293E0,6.9821835E0,8.461554E0,-1.4847229E0,5.436144E0,4.8873916E0,6.0192804E0,6.1478868E0,7.292279E-1,5.455683E0,3.6981378E0,7.461453E0,8.45319E0,7.251468E-1,6.6400876E0,5.324186E0,4.5286036E0,5.82668E0,6.904372E0,6.1823064E-1,5.253119E-1,4.9261928E0,4.3995163E-1,6.456573E-1,4.9668604E-1,5.872059E-1,6.4363855E-1,6.3979325E0,6.788061E-1,6.181044E-1,7.309359E0,8.787115E-1,7.1912855E-1,-1.7580022E-1,3.692625E-1,3.9816508E-1,5.9257746E-1,4.775633E-1,6.402604E-1,5.907084E-1,7.504471E-1,6.504706E-1,5.968006E-1,5.1343024E-1,5.6007886E-1,3.5400766E-1,4.65528E-1,8.6902016E-1,7.23113E-1,8.2124025E-1,8.986208E-1,6.064977E-1,7.0043576E-1,5.105602E-1,5.7866937E-1,4.4182888E-1,6.144217E-1,6.2371254E-1,5.69065E-1,6.648974E-1,7.46302E-1,4.7178435E-1,5.5914193E-1,5.762301E-1,6.4950603E-1,7.933347E-1,6.6180223E-1],"categories":[],"categories_nodes":[],"categories_segments":[],"categories_sizes":[],"default_left":[0,0,0,0,0,0,0,0,0,0,0,0,0,0,0,0,0,0,0,0,0,0,0,0,0,0,0,0,0,0,0,0,0,0,0,0,0,0,0,0,0,0,0,0,0,0,0,0,0,0,0,0,0,0,0,0,0,0,0,0,0,0,0,0,0,0,0,0,0,0,0,0,0,0,0,0,0,0,0,0,0,0,0,0,0,0,0,0,0,0,0,0,0,0,0],"id":4,"left_children":[1,3,5,7,9,11,13,15,17,19,21,23,25,27,29,31,33,35,37,39,41,43,45,47,49,-1,51,53,55,57,59,61,63,65,67,69,-1,71,73,75,77,-1,79,81,83,85,87,-1,-1,89,-1,-1,-1,-1,-1,91,-1,-1,93,-1,-1,-1,-1,-1,-1,-1,-1,-1,-1,-1,-1,-1,-1,-1,-1,-1,-1,-1,-1,-1,-1,-1,-1,-1,-1,-1,-1,-1,-1,-1,-1,-1,-1,-1,-1],"loss_changes":[3.941411E5,4.264074E5,3.0320938E3,3.9595622E5,1.45803125E4,1.85625E2,4.7003125E2,4.231612E5,5.4011562E3,1.01459375E3,2.5629062E3,1.1567969E2,3.6152344E1,2.7953125E2,2.0236133E2,4.238941E5,2.2346562E3,8.4728125E2,1.6945469E3,6.471094E2,7.2109375E0,5.5485156E2,4.146328E2,2.765918E1,2.0217773E1,0E0,1.754541E1,7.6515625E1,5.33125E1,2.218457E1,2.903125E1,2.6373956E5,6.593125E3,3.7109375E2,1.1174219E3,3.6335938E2,0E0,1.8017578E1,1.7157031E2,2.5978516E2,1.8134375E2,0E0,8.531055E1,1.2401953E2,3.8152734E2,7.888672E0,6.323828E1,0E0,0E0,2.9060547E1,0E0,0E0,0E0,0E0,0E0,9.6796875E0,0E0,0E0,2.3851562E1,0E0,0E0,0E0,0E0,0E0,0E0,0E0,0E0,0E0,0E0,0E0,0E0,0E0,0E0,0E0,0E0,0E0,0E0,0E0,0E0,0E0,0E0,0E0,0E0,0E0,0E0,0E0,0E0,0E0,0E0,0E0,0E0,0E0,0E0,0E0,0E0],"parents":[2147483647,0,0,1,1,2,2,3,3,4,4,5,5,6,6,7,7,8,8,9,9,10,10,11,11,12,12,13,13,14,14,15,15,16,16,17,17,18,18,19,19,20,20,21,21,22,22,23,23,24,24,26,26,27,27,28,28,29,29,30,30,31,31,32,32,33,33,34,34,35,35,37,37,38,38,39,39,40,40,42,42,43,43,44,44,45,45,46,46,49,49,55,55,58,58],"right_children":[2,4,6,8,10,12,14,16,18,20,22,24,26,28,30,32,34,36,38,40,42,44,46,48,50,-1,52,54,56,58,60,62,64,66,68,70,-1,72,74,76,78,-1,80,82,84,86,88,-1,-1,90,-1,-1,-1,-1,-1,92,-1,-1,94,-1,-1,-1,-1,-1,-1,-1,-1,-1,-1,-1,-1,-1,-1,-1,-1,-1,-1,-1,-1,-1,-1,-1,-1,-1,-1,-1,-1,-1,-1,-1,-1,-1,-1,-1,-1],"split_conditions":[1E0,1E0,-5E-1,1E0,6E0,2.005E3,2.023E3,1E0,2.017E3,5E0,1.1E1,6E0,2.023E3,-1.8369701E-16,5E0,1E0,-5E-1,2.014E3,6E0,2.003E3,1.998E3,1E0,1.2E1,1.994E3,1.999E3,5.533631E-1,2.025E3,2.004E3,1.995E3,2.024E3,1.2E1,1E0,-5E-1,2.023E3,2.023E3,1.998E3,7.292279E-1,2.02E3,1.2E1,1.992E3,2.019E3,7.251468E-1,2.009E3,2.014E3,2.023E3,1.998E3,2.014E3,6.1823064E-1,5.253119E-1,1.997E3,4.3995163E-1,6.456573E-1,4.9668604E-1,5.872059E-1,6.4363855E-1,6.123234E-17,6.788061E-1,6.181044E-1,2.025E3,8.787115E-1,7.1912855E-1,-1.7580022E-1,3.692625E-1,3.9816508E-1,5.9257746E-1,4.775633E-1,6.402604E-1,5.907084E-1,7.504471E-1,6.504706E-1,5.968006E-1,5.1343024E-1,5.6007886E-1,3.5400766E-1,4.65528E-1,8.6902016E-1,7.23113E-1,8.2124025E-1,8.986208E-1,6.064977E-1,7.0043576E-1,5.105602E-1,5.7866937E-1,4.4182888E-1,6.144217E-1,6.2371254E-1,5.69065E-1,6.648974E-1,7.46302E-1,4.7178435E-1,5.5914193E-1,5.762301E-1,6.4950603E-1,7.933347E-1,6.6180223E-1],"split_indices":[16,20,28,26,1,0,0,21,0,1,1,1,0,28,1,22,28,0,1,0,0,29,1,0,0,0,0,0,0,0,1,19,28,0,0,0,0,0,1,0,0,0,0,0,0,0,0,0,0,0,0,0,0,0,0,28,0,0,0,0,0,0,0,0,0,0,0,0,0,0,0,0,0,0,0,0,0,0,0,0,0,0,0,0,0,0,0,0,0,0,0,0,0,0,0],"split_type":[0,0,0,0,0,0,0,0,0,0,0,0,0,0,0,0,0,0,0,0,0,0,0,0,0,0,0,0,0,0,0,0,0,0,0,0,0,0,0,0,0,0,0,0,0,0,0,0,0,0,0,0,0,0,0,0,0,0,0,0,0,0,0,0,0,0,0,0,0,0,0,0,0,0,0,0,0,0,0,0,0,0,0,0,0,0,0,0,0,0,0,0,0,0,0],"sum_hessian":[2.32968E5,2.23596E5,9.372E3,2.143E5,9.296E3,2.369E3,7.003E3,2.05033E5,9.267E3,3.92E3,5.376E3,9.77E2,1.392E3,6.525E3,4.78E2,1.95691E5,9.342E3,7.023E3,2.244E3,3.126E3,7.94E2,3.81E3,1.566E3,3.3E2,6.47E2,1.228E3,1.64E2,1.47E3,5.055E3,2.56E2,2.22E2,1.86401E5,9.29E3,2.371E3,6.971E3,6.265E3,7.58E2,1.002E3,1.242E3,1.139E3,1.987E3,1.85E2,6.09E2,1.518E3,2.292E3,7.76E2,7.9E2,9.3E1,2.37E2,3.99E2,2.48E2,1.34E2,3E1,6.32E2,8.38E2,7.62E2,4.293E3,8E1,1.76E2,1.72E2,5E1,1.77056E5,9.345E3,2.342E3,6.948E3,2.212E3,1.59E2,6.486E3,4.85E2,2.088E3,4.177E3,3.23E2,6.79E2,1.07E3,1.72E2,1.74E2,9.65E2,1.38E3,6.07E2,2.43E2,3.66E2,1.039E3,4.79E2,2.149E3,1.43E2,1.82E2,5.94E2,5.51E2,2.39E2,3.1E2,8.9E1,1.09E2,6.53E2,8.7E1,8.9E1],"tree_param":{"num_deleted":"0","num_feature":"33","num_nodes":"95","size_leaf_vector":"1"}},{"base_weights":[6.38636E-3,3.397973E-1,-7.960199E0,6.120587E-1,-5.953054E0,-8.388096E-1,-7.816413E0,8.7519485E-1,-5.1820006E0,-6.31448E0,-5.687248E0,-7.9044642E0,-7.4960774E-1,1.1428161E0,-4.7652717E0,-5.596001E0,-4.5932326E0,-6.453686E0,-6.0993916E-1,-5.8825487E-1,-5.4228276E-1,-7.8256935E-1,-8.09834E-1,1.4191644E0,-4.3803368E0,-4.9838996E0,-4.3201227E0,-5.744924E-1,-5.3975075E-1,-4.4890623E0,-4.9998465E-1,-6.20671E-1,-6.573626E-1,1.675627E-1,-3.4655684E-1,-4.6642908E-1,-3.9818498E-1,-5.0277513E-1,-4.6877852E-1,-4.2025658E-1,-4.6550795E-1,-4.9869052E-1,-4.3178368E-1],"categories":[],"categories_nodes":[],"categories_segments":[],"categories_sizes":[],"default_left":[0,0,0,0,0,0,0,0,0,0,0,0,0,0,0,0,0,0,0,0,0,0,0,0,0,0,0,0,0,0,0,0,0,0,0,0,0,0,0,0,0,0,0],"id":5,"left_children":[1,3,5,7,9,-1,11,13,15,17,19,21,-1,23,25,27,29,31,-1,-1,-1,-1,-1,33,35,37,39,-1,-1,41,-1,-1,-1,-1,-1,-1,-1,-1,-1,-1,-1,-1,-1],"loss_changes":[6.193045E5,3.834283E5,5.106875E2,3.2705678E5,8.5571875E2,0E0,1.38875E2,3.0974903E5,2.2457969E3,7.8125E1,2.4479688E2,2.05E1,0E0,2.990127E5,8.830781E2,1.3060938E2,1.4076562E2,2.9257812E1,0E0,0E0,0E0,0E0,0E0,2.3372778E5,1.0377031E3,5.7296875E1,1.0128516E2,0E0,0E0,2.4076562E2,0E0,0E0,0E0,0E0,0E0,0E0,0E0,0E0,0E0,0E0,0E0,0E0,0E0],"parents":[2147483647,0,0,1,1,2,2,3,3,4,4,6,6,7,7,8,8,9,9,10,10,11,11,13,13,14,14,15,15,16,16,17,17,23,23,24,24,25,25,26,26,29,29],"right_children":[2,4,6,8,10,-1,12,14,16,18,20,22,-1,24,26,28,30,32,-1,-1,-1,-1,-1,34,36,38,40,-1,-1,42,-1,-1,-1,-1,-1,-1,-1,-1,-1,-1,-1,-1,-1],"split_conditions":[1E0,1E0,-5E-1,1E0,-1.8369701E-16,-8.388096E-1,1.1E1,1E0,8E0,-5E-1,1E1,1E0,-7.4960774E-1,1E0,9E0,5E0,1.2E1,6E0,-6.0993916E-1,-5.8825487E-1,-5.4228276E-1,-7.8256935E-1,-8.09834E-1,1E0,8E0,8E0,1.2E1,-5.744924E-1,-5.3975075E-1,9E0,-4.9998465E-1,-6.20671E-1,-6.573626E-1,1.675627E-1,-3.4655684E-1,-4.6642908E-1,-3.9818498E-1,-5.0277513E-1,-4.6877852E-1,-4.2025658E-1,-4.6550795E-1,-4.9869052E-1,-4.3178368E-1],"split_indices":[7,11,28,23,28,0,1,10,1,28,1,29,0,12,1,1,1,1,0,0,0,0,0,5,1,1,1,0,0,1,0,0,0,0,0,0,0,0,0,0,0,0,0],"split_type":[0,0,0,0,0,0,0,0,0,0,0,0,0,0,0,0,0,0,0,0,0,0,0,0,0,0,0,0,0,0,0,0,0,0,0,0,0,0,0,0,0,0,0],"sum_hessian":[2.33157E5,2.23792E5,9.365E3,2.14512E5,9.28E3,2.341E3,7.024E3,2.05194E5,9.318E3,3.923E3,5.357E3,5.491E3,1.533E3,1.959E5,9.294E3,5.466E3,3.852E3,2.364E3,1.559E3,3.069E3,2.288E3,3.934E3,1.557E3,1.86566E5,9.334E3,6.226E3,3.068E3,3.107E3,2.359E3,3.076E3,7.76E2,7.9E2,1.574E3,1.7726E5,9.306E3,5.444E3,3.89E3,5.409E3,8.17E2,2.281E3,7.87E2,7.8E2,2.296E3],"tree_param":{"num_deleted":"0","num_feature":"33","num_nodes":"43","size_leaf_vector":"1"}},{"base_weights":[4.3892404E-3,3.0412406E-1,-7.1640797E0,5.47854E-1,-5.3564115E0,-7.3349004E0,-6.6931653E0,7.860082E-1,-4.687562E0,-5.562851E0,-4.794455E0,-7.640352E0,-7.032366E0,-6.8135314E0,-6.344433E0,1.0267749E0,-4.2952237E0,-5.0454183E0,-4.178292E0,-5.941189E0,-5.1791353E0,-4.382273E0,-5.05028E0,-7.336082E-1,-7.7863975E0,-7.163283E-1,-6.8960625E-1,-7.1257704E-1,-6.699761E-1,-6.1319966E0,-7.197807E-1,1.276053E0,-3.9370887E0,-4.818973E0,-2.8340282E0,-5.173897E0,-4.87222E0,-4.8205314E0,-4.091142E0,-5.63318E0,-6.0863485E0,-5.29068E0,-4.9471197E0,-4.79626E0,-3.6132494E-1,-5.160186E0,-4.5118856E0,-7.978621E0,-7.5206584E-1,-6.4645123E0,-5.816587E0,1.5227197E-1,-3.3944473E-1,-4.425559E-1,-2.3822574E-1,-5.025906E-1,-4.4049E-1,-2.1703577E-1,-3.268277E-1,-5.211137E-1,-4.4695327E-1,-4.747622E-1,-5.2805996E-1,-4.0930668E-1,-4.9862453E-1,-3.915424E-1,-4.5817557E-1,-4.9990883E-1,-5.711619E-1,-6.3130206E-1,-5.7777673E-1,-5.446531E-1,-5.15342E-1,-4.739325E-1,-5.1283807E-1,-4.9199876E-1,-4.244329E-1,-4.531094E-1,-5.2474123E-1,-3.874291E-1,-5.2606535E-1,-8.150937E-1,-7.4399734E-1,-6.875777E-1,-5.991165E-1,-5.5683154E-1,-6.5058905E-1],"categories":[],"categories_nodes":[],"categories_segments":[],"categories_sizes":[],"default_left":[0,0,0,0,0,0,0,0,0,0,0,0,0,0,0,0,0,0,0,0,0,0,0,0,0,0,0,0,0,0,0,0,0,0,0,0,0,0,0,0,0,0,0,0,0,0,0,0,0,0,0,0,0,0,0,0,0,0,0,0,0,0,0,0,0,0,0,0,0,0,0,0,0,0,0,0,0,0,0,0,0,0,0,0,0,0,0],"id":6,"left_children":[1,3,5,7,9,11,13,15,17,19,21,23,25,27,29,31,33,35,37,39,41,43,45,-1,47,-1,-1,-1,-1,49,-1,51,53,55,57,59,61,63,65,67,69,71,73,75,-1,77,79,81,-1,83,85,-1,-1,-1,-1,-1,-1,-1,-1,-1,-1,-1,-1,-1,-1,-1,-1,-1,-1,-1,-1,-1,-1,-1,-1,-1,-1,-1,-1,-1,-1,-1,-1,-1,-1,-1,-1],"loss_changes":[5.0050416E5,3.084785E5,7.0296875E2,2.6727797E5,1.0440938E3,5.7928125E2,6.1710938E1,2.5084366E5,1.6787188E3,9.4828125E2,2.4011719E2,9.3828125E1,1.2234375E1,1.7804688E1,7.478711E1,2.4223631E5,7.0852812E3,9.6578125E1,1.9604688E2,1.1724219E2,6.06875E1,2.8829883E2,6.712891E1,0E0,5.6421875E1,0E0,0E0,0E0,0E0,1.819336E1,0E0,2.1474966E5,7.099047E3,5.628281E2,6.9899023E2,5.8703125E1,9.439844E1,3.4441406E1,2.752539E2,2.6105469E1,1.2378125E2,2.0105469E1,1.73125E1,2.152539E1,0E0,4.5476562E1,1.070874E2,6.0578125E1,0E0,7.473633E0,1.2204102E1,0E0,0E0,0E0,0E0,0E0,0E0,0E0,0E0,0E0,0E0,0E0,0E0,0E0,0E0,0E0,0E0,0E0,0E0,0E0,0E0,0E0,0E0,0E0,0E0,0E0,0E0,0E0,0E0,0E0,0E0,0E0,0E0,0E0,0E0,0E0,0E0],"parents":[2147483647,0,0,1,1,2,2,3,3,4,4,5,5,6,6,7,7,8,8,9,9,10,10,11,11,12,12,13,13,14,14,15,15,16,16,17,17,18,18,19,19,20,20,21,21,22,22,24,24,29,29,31,31,32,32,33,33,34,34,35,35,36,36,37,37,38,38,39,39,40,40,41,41,42,42,43,43,45,45,46,46,47,47,49,49,50,50],"right_children":[2,4,6,8,10,12,14,16,18,20,22,24,26,28,30,32,34,36,38,40,42,44,46,-1,48,-1,-1,-1,-1,50,-1,52,54,56,58,60,62,64,66,68,70,72,74,76,-1,78,80,82,-1,84,86,-1,-1,-1,-1,-1,-1,-1,-1,-1,-1,-1,-1,-1,-1,-1,-1,-1,-1,-1,-1,-1,-1,-1,-1,-1,-1,-1,-1,-1,-1,-1,-1,-1,-1,-1,-1],"split_conditions":[1E0,1E0,2.016E3,1E0,2.016E3,6.123234E-17,2.023E3,1E0,8E0,6.123234E-17,-2.4492937E-16,6E0,8.660254E-1,-5E-1,2.025E3,1E0,2.016E3,5E0,1.994E3,6E0,1.1E1,2.022E3,2.024E3,-7.336082E-1,2.005E3,-7.163283E-1,-6.8960625E-1,-7.1257704E-1,-6.699761E-1,2.024E3,-7.197807E-1,1E0,2.017E3,9E0,-2.4492937E-16,2.024E3,2.017E3,-8.660254E-1,2.017E3,1.993E3,2.005E3,2.002E3,1.2E1,1.1E1,-3.6132494E-1,2.017E3,2.025E3,9E0,-7.5206584E-1,7E0,8.660254E-1,1.5227197E-1,-3.3944473E-1,-4.425559E-1,-2.3822574E-1,-5.025906E-1,-4.4049E-1,-2.1703577E-1,-3.268277E-1,-5.211137E-1,-4.4695327E-1,-4.747622E-1,-5.2805996E-1,-4.0930668E-1,-4.9862453E-1,-3.915424E-1,-4.5817557E-1,-4.9990883E-1,-5.711619E-1,-6.3130206E-1,-5.7777673E-1,-5.446531E-1,-5.15342E-1,-4.739325E-1,-5.1283807E-1,-4.9199876E-1,-4.244329E-1,-4.531094E-1,-5.2474123E-1,-3.874291E-1,-5.2606535E-1,-8.150937E-1,-7.4399734E-1,-6.875777E-1,-5.991165E-1,-5.5683154E-1,-6.5058905E-1],"split_indices":[7,11,0,23,0,28,0,10,1,28,27,1,28,28,0,12,0,1,0,1,1,0,0,0,0,0,0,0,0,0,0,13,0,1,27,0,0,27,0,0,0,0,1,1,0,0,0,1,0,1,28,0,0,0,0,0,0,0,0,0,0,0,0,0,0,0,0,0,0,0,0,0,0,0,0,0,0,0,0,0,0,0,0,0,0,0,0],"split_type":[0,0,0,0,0,0,0,0,0,0,0,0,0,0,0,0,0,0,0,0,0,0,0,0,0,0,0,0,0,0,0,0,0,0,0,0,0,0,0,0,0,0,0,0,0,0,0,0,0,0,0,0,0,0,0,0,0,0,0,0,0,0,0,0,0,0,0,0,0,0,0,0,0,0,0,0,0,0,0,0,0,0,0,0,0,0,0],"sum_hessian":[2.32938E5,2.2359E5,9.348E3,2.14361E5,9.229E3,6.849E3,2.499E3,2.05035E5,9.326E3,6.743E3,2.486E3,3.396E3,3.453E3,1.844E3,6.55E2,1.9576E5,9.275E3,5.472E3,3.854E3,3.388E3,3.355E3,9.59E2,1.527E3,1.118E3,2.278E3,1.735E3,1.718E3,4.76E2,1.368E3,5.31E2,1.24E2,1.864E5,9.36E3,6.826E3,2.449E3,3.125E3,2.347E3,4.54E2,3.4E3,1.098E3,2.29E3,2.251E3,1.104E3,6.2E2,3.39E2,1.261E3,2.66E2,1.305E3,9.73E2,2.49E2,2.82E2,1.7705E5,9.35E3,7.121E3,2.239E3,4.544E3,2.282E3,9.71E2,1.478E3,2.962E3,1.63E2,1.808E3,5.39E2,8.9E1,3.65E2,2.51E3,8.9E2,1.28E2,9.7E2,1.309E3,9.81E2,1.036E3,1.215E3,5.27E2,5.77E2,5E2,1.2E2,1.6E2,1.101E3,1.47E2,1.19E2,9.78E2,3.27E2,1.26E2,1.23E2,2.14E2,6.8E1],"tree_param":{"num_deleted":"0","num_feature":"33","num_nodes":"87","size_leaf_vector":"1"}},{"base_weights":[8.1805914E-4,2.7168357E-1,-6.4450326E0,4.820284E-2,5.393132E0,-6.5955377E0,-6.0358777E0,-1.9460683E-1,5.405757E0,4.50236E0,5.693573E0,-6.878531E0,-6.3142395E0,-6.147886E0,-5.713266E0,-4.5963195E-1,5.4051886E0,6.717924E0,4.459414E0,4.178353E0,4.734629E0,5.618274E0,6.677256E0,-6.6231155E-1,-7.0021596E0,-6.439723E-1,-6.1822724E-1,-6.4211935E-1,-6.0509604E-1,-5.931642E0,-4.8610425E-1,-7.291192E-1,4.938727E0,7.454707E0,4.3803835E0,6.967529E0,5.758976E0,4.062212E0,5.4305477E0,4.6628284E0,3.9212751E0,4.669582E-1,5.1813736E0,5.227663E0,5.7320237E0,7.6264375E-1,6.0854516E0,-7.1196966E0,-6.640216E-1,-5.7631354E0,-6.4235187E-1,-1.0246326E-1,4.8422247E-1,5.3232473E-1,3.723451E-1,6.6491246E-1,9.8106474E-1,3.5114345E-1,5.8448553E-1,6.3584936E-1,7.3004025E-1,6.1771387E-1,5.616344E-1,3.9661774E-1,5.51197E-1,4.937068E-1,5.895685E-1,5.2750593E-1,4.3967324E-1,4.0841618E-1,3.651863E-1,5.3965086E-1,4.2281172E-1,4.8766685E-1,5.40266E-1,5.4128677E-1,5.7869124E-1,5.4138565E-1,6.386984E-1,-7.329921E-1,-6.840745E-1,-6.079045E-1,-5.4283595E-1],"categories":[],"categories_nodes":[],"categories_segments":[],"categories_sizes":[],"default_left":[0,0,0,0,0,0,0,0,0,0,0,0,0,0,0,0,0,0,0,0,0,0,0,0,0,0,0,0,0,0,0,0,0,0,0,0,0,0,0,0,0,0,0,0,0,0,0,0,0,0,0,0,0,0,0,0,0,0,0,0,0,0,0,0,0,0,0,0,0,0,0,0,0,0,0,0,0,0,0,0,0,0,0],"id":7,"left_children":[1,3,5,7,9,11,13,15,17,19,21,23,25,27,29,31,33,35,37,39,41,43,45,-1,47,-1,-1,-1,-1,49,-1,51,53,55,57,59,61,63,65,67,69,-1,71,73,75,-1,77,79,-1,81,-1,-1,-1,-1,-1,-1,-1,-1,-1,-1,-1,-1,-1,-1,-1,-1,-1,-1,-1,-1,-1,-1,-1,-1,-1,-1,-1,-1,-1,-1,-1,-1,-1],"loss_changes":[4.0718903E5,2.5616383E5,5.3934375E2,2.7897956E5,2.4787812E3,5.030625E2,5.66875E1,3.044762E5,1.15159375E4,1.5819922E2,4.8051562E2,6.134375E1,1.740625E1,1.0765625E1,9.566992E1,2.8498075E5,1.9439719E4,8.919219E2,2.0628516E3,1.0576758E2,1.56171875E1,2.5898438E2,2.2995898E2,0E0,4.9765625E1,0E0,0E0,0E0,0E0,6.7441406E0,0E0,3.071849E5,4.3325938E3,5.7974062E3,7.847664E3,5.790156E2,1.3619141E1,5.1277344E2,3.3034375E2,3.2197266E1,1.3916016E1,0E0,1.1020508E1,6.443359E1,5.671875E1,0E0,2.7793945E1,5.0007812E1,0E0,9.62207E0,0E0,0E0,0E0,0E0,0E0,0E0,0E0,0E0,0E0,0E0,0E0,0E0,0E0,0E0,0E0,0E0,0E0,0E0,0E0,0E0,0E0,0E0,0E0,0E0,0E0,0E0,0E0,0E0,0E0,0E0,0E0,0E0,0E0],"parents":[2147483647,0,0,1,1,2,2,3,3,4,4,5,5,6,6,7,7,8,8,9,9,10,10,11,11,12,12,13,13,14,14,15,15,16,16,17,17,18,18,19,19,20,20,21,21,22,22,24,24,29,29,31,31,32,32,33,33,34,34,35,35,36,36,37,37,38,38,39,39,40,40,42,42,43,43,44,44,46,46,47,47,49,49],"right_children":[2,4,6,8,10,12,14,16,18,20,22,24,26,28,30,32,34,36,38,40,42,44,46,-1,48,-1,-1,-1,-1,50,-1,52,54,56,58,60,62,64,66,68,70,-1,72,74,76,-1,78,80,-1,82,-1,-1,-1,-1,-1,-1,-1,-1,-1,-1,-1,-1,-1,-1,-1,-1,-1,-1,-1,-1,-1,-1,-1,-1,-1,-1,-1,-1,-1,-1,-1,-1,-1],"split_conditions":[1E0,1E0,2.016E3,1E0,-5E-1,6.123234E-17,2.023E3,1E0,6E0,2.005E3,2.023E3,6E0,8.660254E-1,-5E-1,1E0,1E0,5E0,5E0,1.1E1,6E0,2.023E3,-1.8369701E-16,-2.4492937E-16,-6.6231155E-1,9E0,-6.439723E-1,-6.1822724E-1,-6.4211935E-1,-6.0509604E-1,2.025E3,-4.8610425E-1,1E0,2.017E3,2.017E3,1E1,2.003E3,1.998E3,2.023E3,1.2E1,1.994E3,1.999E3,4.669582E-1,2.025E3,2.001E3,1.995E3,7.6264375E-1,2.024E3,2.005E3,-6.640216E-1,2.024E3,-6.4235187E-1,-1.0246326E-1,4.8422247E-1,5.3232473E-1,3.723451E-1,6.6491246E-1,9.8106474E-1,3.5114345E-1,5.8448553E-1,6.3584936E-1,7.3004025E-1,6.1771387E-1,5.616344E-1,3.9661774E-1,5.51197E-1,4.937068E-1,5.895685E-1,5.2750593E-1,4.3967324E-1,4.0841618E-1,3.651863E-1,5.3965086E-1,4.2281172E-1,4.8766685E-1,5.40266E-1,5.4128677E-1,5.7869124E-1,5.4138565E-1,6.386984E-1,-7.329921E-1,-6.840745E-1,-6.079045E-1,-5.4283595E-1],"split_indices":[7,16,0,20,28,28,0,15,1,0,0,1,28,28,29,26,1,1,1,1,0,28,27,0,1,0,0,0,0,0,0,21,0,0,1,0,0,0,1,0,0,0,0,0,0,0,0,0,0,0,0,0,0,0,0,0,0,0,0,0,0,0,0,0,0,0,0,0,0,0,0,0,0,0,0,0,0,0,0,0,0,0,0],"split_type":[0,0,0,0,0,0,0,0,0,0,0,0,0,0,0,0,0,0,0,0,0,0,0,0,0,0,0,0,0,0,0,0,0,0,0,0,0,0,0,0,0,0,0,0,0,0,0,0,0,0,0,0,0,0,0,0,0,0,0,0,0,0,0,0,0,0,0,0,0,0,0,0,0,0,0,0,0,0,0,0,0,0,0],"sum_hessian":[2.33216E5,2.23812E5,9.404E3,2.14455E5,9.357E3,6.864E3,2.54E3,2.05158E5,9.297E3,2.364E3,6.993E3,3.41E3,3.454E3,1.872E3,6.68E2,1.95888E5,9.27E3,3.893E3,5.404E3,9.95E2,1.369E3,6.502E3,4.91E2,1.13E3,2.28E3,1.746E3,1.708E3,4.73E2,1.399E3,5.27E2,1.41E2,1.86575E5,9.313E3,3.088E3,6.182E3,3.084E3,8.09E2,3.839E3,1.565E3,3.39E2,6.56E2,1.205E3,1.64E2,1.477E3,5.025E3,1.84E2,3.07E2,1.707E3,5.73E2,4.02E2,1.25E2,1.77178E5,9.397E3,7.072E3,2.241E3,2.304E3,7.84E2,3.882E3,2.3E3,1.097E3,1.987E3,1.95E2,6.14E2,3.604E3,2.35E2,7.65E2,8E2,9.7E1,2.42E2,4E2,2.56E2,1.3E2,3.4E1,5.01E2,9.76E2,7.52E2,4.273E3,1.01E2,2.06E2,9.59E2,7.48E2,1.98E2,2.04E2],"tree_param":{"num_deleted":"0","num_feature":"33","num_nodes":"83","size_leaf_vector":"1"}},{"base_weights":[-1.5636502E-3,2.4148741E-1,-5.8004227E0,4.566138E-1,-4.7096295E0,-5.940472E0,-5.4222984E0,6.6496295E-1,-4.1163774E0,-4.8948746E0,-4.2080703E0,-6.1963706E0,-5.6861935E0,-5.519105E0,-5.1449466E0,8.768919E-1,-3.7618172E0,-4.3934608E0,-3.5548816E0,-5.292698E0,-4.604628E0,-4.462045E0,-3.9232092E0,-5.9393187E0,-6.3212056E0,-5.7646127E0,-5.523842E-1,-5.636256E0,-5.347417E0,-5.472435E0,-4.8051796E0,1.0929912E0,-3.4461164E0,-4.204222E0,-2.3378682E0,-4.562464E0,-4.2233787E0,-3.4057493E0,-3.9849637E0,-4.974387E0,-5.5013347E0,-4.717018E0,-4.319816E0,-4.5739822E0,-3.957035E0,-4.2587066E-1,-3.266411E0,-5.4048896E-1,-6.0066E-1,-6.482809E0,-6.0981703E0,-5.889596E0,-5.6349463E0,-5.0611362E0,-5.724905E-1,-5.4292333E-1,-4.8521838E-1,-5.2052374E0,-5.9471077E-1,-4.571641E-1,-5.340692E-1,1.318175E-1,-3.185157E-1,-3.8863274E-1,-2.027118E-1,-4.3720245E-1,-3.867137E-1,-3.114215E-1,-1.9133227E-1,-4.5935202E-1,-3.9773104E-1,-4.2542702E-1,-3.3909643E-1,-3.2715222E-1,-3.8546106E-1,-3.8149008E-1,-4.2378935E-1,-4.4364396E-1,-5.0377935E-1,-5.755655E-1,-5.1647395E-1,-4.844249E-1,-4.628435E-1,-4.14676E-1,-4.4681197E-1,-3.9029542E-1,-4.668243E-1,-3.3532846E-1,-4.6261263E-1,-3.1452128E-1,-3.8279313E-1,-6.2856734E-1,-6.85171E-1,-5.3980726E-1,-6.1661786E-1,-5.736887E-1,-6.228405E-1,-5.414451E-1,-5.7642764E-1,-4.287959E-1,-5.647423E-1,-5.647821E-1,-4.755993E-1],"categories":[],"categories_nodes":[],"categories_segments":[],"categories_sizes":[],"default_left":[0,0,0,0,0,0,0,0,0,0,0,0,0,0,0,0,0,0,0,0,0,0,0,0,0,0,0,0,0,0,0,0,0,0,0,0,0,0,0,0,0,0,0,0,0,0,0,0,0,0,0,0,0,0,0,0,0,0,0,0,0,0,0,0,0,0,0,0,0,0,0,0,0,0,0,0,0,0,0,0,0,0,0,0,0,0,0,0,0,0,0,0,0,0,0,0,0,0,0,0,0,0,0],"id":8,"left_children":[1,3,5,7,9,11,13,15,17,19,21,23,25,27,29,31,33,35,37,39,41,43,45,47,49,51,-1,53,55,57,59,61,63,65,67,69,71,73,75,77,79,81,83,85,87,-1,89,-1,-1,91,93,95,97,99,-1,-1,-1,101,-1,-1,-1,-1,-1,-1,-1,-1,-1,-1,-1,-1,-1,-1,-1,-1,-1,-1,-1,-1,-1,-1,-1,-1,-1,-1,-1,-1,-1,-1,-1,-1,-1,-1,-1,-1,-1,-1,-1,-1,-1,-1,-1,-1,-1],"loss_changes":[3.2881456E5,2.3849544E5,4.648125E2,2.0445956E5,8.4571875E2,4.0971875E2,4.0015625E1,1.9255184E5,1.4392188E3,7.6115625E2,1.6495312E2,7.146094E1,1.19765625E1,7.5703125E0,4.869922E1,1.829798E5,5.897328E3,1.6058594E2,1.849375E2,1.6276562E2,1.0577344E2,5.6859375E1,2.4985156E2,8.058594E0,4.2328125E1,4.0546875E0,0E0,2.690625E1,5.2617188E0,1.165918E1,1.7980957E1,1.7971108E5,5.8170547E3,3.876875E2,7.2738965E2,3.8539062E1,6.6109375E1,1.26265625E2,1.7856445E1,1.6671875E1,1.1751172E2,9.3046875E0,1.0396484E1,5.0027344E1,8.467041E1,0E0,1.5794922E1,0E0,0E0,5.154297E1,1.2949219E1,2.3664062E1,1.6132812E0,4.6046387E1,0E0,0E0,0E0,1.7478027E1,0E0,0E0,0E0,0E0,0E0,0E0,0E0,0E0,0E0,0E0,0E0,0E0,0E0,0E0,0E0,0E0,0E0,0E0,0E0,0E0,0E0,0E0,0E0,0E0,0E0,0E0,0E0,0E0,0E0,0E0,0E0,0E0,0E0,0E0,0E0,0E0,0E0,0E0,0E0,0E0,0E0,0E0,0E0,0E0,0E0],"parents":[2147483647,0,0,1,1,2,2,3,3,4,4,5,5,6,6,7,7,8,8,9,9,10,10,11,11,12,12,13,13,14,14,15,15,16,16,17,17,18,18,19,19,20,20,21,21,22,22,23,23,24,24,25,25,27,27,28,28,29,29,30,30,31,31,32,32,33,33,34,34,35,35,36,36,37,37,38,38,39,39,40,40,41,41,42,42,43,43,44,44,46,46,49,49,50,50,51,51,52,52,53,53,57,57],"right_children":[2,4,6,8,10,12,14,16,18,20,22,24,26,28,30,32,34,36,38,40,42,44,46,48,50,52,-1,54,56,58,60,62,64,66,68,70,72,74,76,78,80,82,84,86,88,-1,90,-1,-1,92,94,96,98,100,-1,-1,-1,102,-1,-1,-1,-1,-1,-1,-1,-1,-1,-1,-1,-1,-1,-1,-1,-1,-1,-1,-1,-1,-1,-1,-1,-1,-1,-1,-1,-1,-1,-1,-1,-1,-1,-1,-1,-1,-1,-1,-1,-1,-1,-1,-1,-1,-1],"split_conditions":[1E0,1E0,2.016E3,1E0,2.016E3,6.123234E-17,2.023E3,1E0,9E0,-1.8369701E-16,7E0,6E0,1.1E1,8E0,6E0,1E0,2.017E3,5E0,1.2E1,6E0,1.1E1,2.024E3,2.022E3,1.993E3,2.005E3,2.003E3,-5.523842E-1,2.017E3,2.022E3,2.025E3,1.1E1,1E0,2.017E3,9E0,5E0,2.024E3,2.024E3,2.017E3,2.011E3,1.993E3,2.005E3,5E-1,1.2E1,2.017E3,2.025E3,-4.2587066E-1,1.2E1,-5.4048896E-1,-6.0066E-1,2E3,2.006E3,1.999E3,2.008E3,4E0,-5.724905E-1,-5.4292333E-1,-4.8521838E-1,2.024E3,-5.9471077E-1,-4.571641E-1,-5.340692E-1,1.318175E-1,-3.185157E-1,-3.8863274E-1,-2.027118E-1,-4.3720245E-1,-3.867137E-1,-3.114215E-1,-1.9133227E-1,-4.5935202E-1,-3.9773104E-1,-4.2542702E-1,-3.3909643E-1,-3.2715222E-1,-3.8546106E-1,-3.8149008E-1,-4.2378935E-1,-4.4364396E-1,-5.0377935E-1,-5.755655E-1,-5.1647395E-1,-4.844249E-1,-4.628435E-1,-4.14676E-1,-4.4681197E-1,-3.9029542E-1,-4.668243E-1,-3.3532846E-1,-4.6261263E-1,-3.1452128E-1,-3.8279313E-1,-6.2856734E-1,-6.85171E-1,-5.3980726E-1,-6.1661786E-1,-5.736887E-1,-6.228405E-1,-5.414451E-1,-5.7642764E-1,-4.287959E-1,-5.647423E-1,-5.647821E-1,-4.755993E-1],"split_indices":[7,11,0,23,0,28,0,10,1,28,1,1,1,1,1,12,0,1,1,1,1,0,0,0,0,0,0,0,0,0,1,5,0,1,1,0,0,0,0,0,0,28,1,0,0,0,1,0,0,0,0,0,0,1,0,0,0,0,0,0,0,0,0,0,0,0,0,0,0,0,0,0,0,0,0,0,0,0,0,0,0,0,0,0,0,0,0,0,0,0,0,0,0,0,0,0,0,0,0,0,0,0,0],"split_type":[0,0,0,0,0,0,0,0,0,0,0,0,0,0,0,0,0,0,0,0,0,0,0,0,0,0,0,0,0,0,0,0,0,0,0,0,0,0,0,0,0,0,0,0,0,0,0,0,0,0,0,0,0,0,0,0,0,0,0,0,0,0,0,0,0,0,0,0,0,0,0,0,0,0,0,0,0,0,0,0,0,0,0,0,0,0,0,0,0,0,0,0,0,0,0,0,0,0,0,0,0,0,0],"sum_hessian":[2.33296E5,2.23912E5,9.384E3,2.14589E5,9.323E3,6.837E3,2.547E3,2.05239E5,9.35E3,6.802E3,2.521E3,3.396E3,3.441E3,1.874E3,6.73E2,1.95863E5,9.376E3,6.256E3,3.094E3,2.862E3,3.94E3,1.325E3,1.196E3,1.126E3,2.27E3,2.297E3,1.144E3,1.095E3,7.79E2,3.35E2,3.38E2,1.86539E5,9.324E3,7.152E3,2.224E3,3.125E3,3.131E3,2.304E3,7.9E2,1.143E3,1.719E3,2.814E3,1.126E3,1.078E3,2.47E2,7.88E2,4.08E2,1.35E2,9.91E2,1.3E3,9.7E2,1.147E3,1.15E3,1.54E2,9.41E2,6.6E2,1.19E2,2.22E2,1.13E2,2.42E2,9.6E1,1.77212E5,9.327E3,7.115E3,2.209E3,4.767E3,2.385E3,7.84E2,1.44E3,2.961E3,1.64E2,3.015E3,1.16E2,1.78E3,5.24E2,4.82E2,3.08E2,1.28E2,1.015E3,9.7E2,7.49E2,1.133E3,1.681E3,5.33E2,5.93E2,1.38E2,9.4E2,1.33E2,1.14E2,3.41E2,6.7E1,8.59E2,4.41E2,9.3E1,8.77E2,8.03E2,3.44E2,4.41E2,7.09E2,7E1,8.4E1,1.06E2,1.16E2],"tree_param":{"num_deleted":"0","num_feature":"33","num_nodes":"103","size_leaf_vector":"1"}},{"base_weights":[-4.2081304E-4,2.196216E-1,-5.2354803E0,2.3911886E-2,4.749344E0,-5.3566437E0,-4.9026556E0,-1.8971361E-1,4.732429E0,5.940963E0,3.88477E0,-5.6302824E0,-5.162907E0,-4.9888153E0,-4.653285E0,-4.2270967E-1,4.7221894E0,3.9262395E0,5.000866E0,6.1569104E0,5.082233E0,3.386807E0,4.5283594E0,-5.3529115E0,-5.8091207E0,-5.260212E-1,-5.0309267E0,-5.1056576E0,-4.814972E0,-4.8193083E0,-3.9867517E-1,-6.705914E-1,4.5344663E0,6.5917926E0,3.8149884E0,3.6235318E0,4.1437473E0,4.9383364E0,5.847585E0,5.6275663E0,6.4450216E0,4.874016E0,5.370618E0,3.1524143E0,3.8790438E0,4.1915636E0,5.1690493E0,-4.8485428E-1,-5.417172E-1,-5.9968457E0,-5.5529146E0,-5.659573E-1,-5.0000024E0,-4.6314993E0,-5.1822686E-1,-4.886987E-1,-4.350821E-1,-4.676637E0,-5.205724E0,-9.319094E-2,4.3165022E-1,3.23255E-1,4.9711424E-1,5.820142E-1,8.522666E-1,3.0354962E-1,5.13791E-1,4.0824404E-1,3.3917126E-1,4.0735626E-1,4.633289E-1,4.5895225E-1,5.0390345E-1,6.7628384E-1,5.296034E-1,6.008939E-1,4.9897414E-1,6.224073E-1,6.929266E-1,5.404087E-1,4.4308788E-1,5.820522E-1,5.042078E-1,3.7005845E-1,2.8180727E-1,3.7127402E-1,4.5510107E-1,3.9867792E-1,4.637273E-1,4.9388543E-1,5.661375E-1,-5.7892436E-1,-6.3839835E-1,-5.368602E-1,-5.8611685E-1,-4.47184E-1,-5.040655E-1,-4.1932032E-1,-5.645611E-1,-4.911685E-1,-4.426508E-1,-5.3175086E-1,-3.7648302E-1],"categories":[],"categories_nodes":[],"categories_segments":[],"categories_sizes":[],"default_left":[0,0,0,0,0,0,0,0,0,0,0,0,0,0,0,0,0,0,0,0,0,0,0,0,0,0,0,0,0,0,0,0,0,0,0,0,0,0,0,0,0,0,0,0,0,0,0,0,0,0,0,0,0,0,0,0,0,0,0,0,0,0,0,0,0,0,0,0,0,0,0,0,0,0,0,0,0,0,0,0,0,0,0,0,0,0,0,0,0,0,0,0,0,0,0,0,0,0,0,0,0,0,0],"id":9,"left_children":[1,3,5,7,9,11,13,15,17,19,21,23,25,27,29,31,33,35,37,39,41,43,45,47,49,-1,51,53,55,57,-1,59,61,63,65,67,69,71,73,75,77,79,81,83,85,87,89,-1,-1,91,93,-1,95,97,-1,-1,-1,99,101,-1,-1,-1,-1,-1,-1,-1,-1,-1,-1,-1,-1,-1,-1,-1,-1,-1,-1,-1,-1,-1,-1,-1,-1,-1,-1,-1,-1,-1,-1,-1,-1,-1,-1,-1,-1,-1,-1,-1,-1,-1,-1,-1,-1],"loss_changes":[2.6881444E5,1.9853039E5,3.533125E2,2.1593072E5,9.5324375E3,3.361875E2,3.1015625E1,2.350225E5,1.9966719E3,6.915625E2,1.7082188E3,1.1003125E2,2.55E1,1.32421875E1,5.4154297E1,2.4091661E5,1.5748641E4,1.3852734E2,3.4098438E2,4.3803906E2,2.1201172E1,3.380586E2,4.8390625E2,1.0292969E1,4.9328125E1,0E0,5.5273438E0,1.5847656E1,4.341797E0,4.6523438E0,0E0,2.4334203E5,5.2921562E3,4.4754062E3,6.4438906E3,9.0728516E1,2.7511719E1,2.0559375E2,2.0396875E2,2.385625E2,1.7160156E2,8.62207E1,1.809961E1,3.6748633E2,9.205859E1,1.22166016E2,6.304492E1,0E0,0E0,4.1726562E1,1.0576172E1,0E0,1.325E1,4.8332764E1,0E0,0E0,0E0,1.4228516E0,1.4025879E0,0E0,0E0,0E0,0E0,0E0,0E0,0E0,0E0,0E0,0E0,0E0,0E0,0E0,0E0,0E0,0E0,0E0,0E0,0E0,0E0,0E0,0E0,0E0,0E0,0E0,0E0,0E0,0E0,0E0,0E0,0E0,0E0,0E0,0E0,0E0,0E0,0E0,0E0,0E0,0E0,0E0,0E0,0E0,0E0],"parents":[2147483647,0,0,1,1,2,2,3,3,4,4,5,5,6,6,7,7,8,8,9,9,10,10,11,11,12,12,13,13,14,14,15,15,16,16,17,17,18,18,19,19,20,20,21,21,22,22,23,23,24,24,26,26,27,27,28,28,29,29,31,31,32,32,33,33,34,34,35,35,36,36,37,37,38,38,39,39,40,40,41,41,42,42,43,43,44,44,45,45,46,46,49,49,50,50,52,52,53,53,57,57,58,58],"right_children":[2,4,6,8,10,12,14,16,18,20,22,24,26,28,30,32,34,36,38,40,42,44,46,48,50,-1,52,54,56,58,-1,60,62,64,66,68,70,72,74,76,78,80,82,84,86,88,90,-1,-1,92,94,-1,96,98,-1,-1,-1,100,102,-1,-1,-1,-1,-1,-1,-1,-1,-1,-1,-1,-1,-1,-1,-1,-1,-1,-1,-1,-1,-1,-1,-1,-1,-1,-1,-1,-1,-1,-1,-1,-1,-1,-1,-1,-1,-1,-1,-1,-1,-1,-1,-1,-1],"split_conditions":[1E0,1E0,2.016E3,1E0,6E0,-1.8369701E-16,2.023E3,1E0,-5E-1,5E0,1E1,6E0,8.660254E-1,8E0,1E0,1E0,5E0,2.005E3,2.023E3,2.003E3,2.011E3,2.014E3,1.2E1,1.993E3,2.005E3,-5.260212E-1,1.991E3,2.017E3,2.022E3,2.025E3,-3.9867517E-1,1E0,-5E-1,2.016E3,1E1,6E0,2.023E3,-1.8369701E-16,-2.4492937E-16,1.998E3,2.019E3,1.999E3,2.017E3,1.999E3,2.023E3,2.014E3,2.014E3,-4.8485428E-1,-5.417172E-1,2E3,2.012E3,-5.659573E-1,1.993E3,6E0,-5.1822686E-1,-4.886987E-1,-4.350821E-1,2.024E3,6E0,-9.319094E-2,4.3165022E-1,3.23255E-1,4.9711424E-1,5.820142E-1,8.522666E-1,3.0354962E-1,5.13791E-1,4.0824404E-1,3.3917126E-1,4.0735626E-1,4.633289E-1,4.5895225E-1,5.0390345E-1,6.7628384E-1,5.296034E-1,6.008939E-1,4.9897414E-1,6.224073E-1,6.929266E-1,5.404087E-1,4.4308788E-1,5.820522E-1,5.042078E-1,3.7005845E-1,2.8180727E-1,3.7127402E-1,4.5510107E-1,3.9867792E-1,4.637273E-1,4.9388543E-1,5.661375E-1,-5.7892436E-1,-6.3839835E-1,-5.368602E-1,-5.8611685E-1,-4.47184E-1,-5.040655E-1,-4.1932032E-1,-5.645611E-1,-4.911685E-1,-4.426508E-1,-5.3175086E-1,-3.7648302E-1],"split_indices":[7,20,0,16,1,28,0,15,28,1,1,1,28,1,29,22,1,0,0,0,0,0,1,0,0,0,0,0,0,0,0,26,28,0,1,1,0,28,27,0,0,0,0,0,0,0,0,0,0,0,0,0,0,1,0,0,0,0,1,0,0,0,0,0,0,0,0,0,0,0,0,0,0,0,0,0,0,0,0,0,0,0,0,0,0,0,0,0,0,0,0,0,0,0,0,0,0,0,0,0,0,0,0],"split_type":[0,0,0,0,0,0,0,0,0,0,0,0,0,0,0,0,0,0,0,0,0,0,0,0,0,0,0,0,0,0,0,0,0,0,0,0,0,0,0,0,0,0,0,0,0,0,0,0,0,0,0,0,0,0,0,0,0,0,0,0,0,0,0,0,0,0,0,0,0,0,0,0,0,0,0,0,0,0,0,0,0,0,0,0,0,0,0,0,0,0,0,0,0,0,0,0,0,0,0,0,0,0,0],"sum_hessian":[2.33357E5,2.23945E5,9.412E3,2.14671E5,9.274E3,6.889E3,2.523E3,2.05355E5,9.316E3,3.897E3,5.377E3,2.844E3,4.045E3,1.861E3,6.62E2,1.96056E5,9.299E3,2.331E3,6.985E3,3.109E3,7.88E2,3.035E3,2.342E3,1.127E3,1.717E3,2.306E3,1.739E3,1.096E3,7.65E2,5.25E2,1.37E2,1.8672E5,9.336E3,3.036E3,6.263E3,9.82E2,1.349E3,6.511E3,4.74E2,1.103E3,2.006E3,4.68E2,3.2E2,2.061E3,9.74E2,1.54E3,8.02E2,1.36E2,9.91E2,9.78E2,7.39E2,7.3E1,1.666E3,1.61E2,9.35E2,6.54E2,1.11E2,3.93E2,1.32E2,1.77424E5,9.296E3,2.347E3,6.989E3,2.172E3,8.64E2,3.943E3,2.32E3,3.24E2,6.58E2,1.188E3,1.61E2,1.469E3,5.042E3,1.74E2,3E2,6.85E2,4.18E2,1.387E3,6.19E2,2.08E2,2.6E2,1.28E2,1.92E2,7.77E2,1.284E3,7.86E2,1.88E2,1.062E3,4.78E2,5.54E2,2.48E2,6.47E2,3.31E2,4.74E2,2.65E2,1.27E2,1.539E3,1.16E2,4.5E1,1.93E2,2E2,1.2E2,1.2E1],"tree_param":{"num_deleted":"0","num_feature":"33","num_nodes":"103","size_leaf_vector":"1"}},{"base_weights":[3.0024305E-3,2.0103358E-1,-4.702205E0,3.891232E-1,-4.152799E0,-4.9788218E0,-4.61026E0,5.706673E-1,-3.612716E0,-4.5553923E0,-4.0133204E0,-4.782184E-1,-5.077612E-1,-4.6794492E-1,-4.468498E-1,7.5399196E-1,-3.285832E0,-3.858269E0,-3.1116152E0,-4.3581796E-1,-4.6496508E-1,-4.134128E0,-3.768789E0,9.457762E-1,-3.1113963E0,-3.4896874E0,-2.997545E0,-4.0136147E-1,-3.7037225E0,-2.9786932E0,-3.4950334E-1,-4.037296E-1,-4.1816193E-1,-3.7024982E0,-3.887462E-1,1.1548139E-1,-3.001301E-1,-3.5958013E-1,-2.129535E-1,-3.4460372E-1,-3.5987014E-1,-2.9307327E-1,-3.263238E-1,-3.7536618E-1,-3.5472834E-1,-3.1231737E-1,-2.6823422E-1,-3.8738212E-1,-3.518576E-1],"categories":[],"categories_nodes":[],"categories_segments":[],"categories_sizes":[],"default_left":[0,0,0,0,0,0,0,0,0,0,0,0,0,0,0,0,0,0,0,0,0,0,0,0,0,0,0,0,0,0,0,0,0,0,0,0,0,0,0,0,0,0,0,0,0,0,0,0,0],"id":10,"left_children":[1,3,5,7,9,11,13,15,17,19,21,-1,-1,-1,-1,23,25,27,29,-1,-1,31,33,35,37,39,41,-1,43,45,-1,-1,-1,47,-1,-1,-1,-1,-1,-1,-1,-1,-1,-1,-1,-1,-1,-1,-1],"loss_changes":[2.1709581E5,1.8309453E5,2.16375E2,1.557099E5,5.0164062E2,2.1078125E1,4.8515625E1,1.4495194E5,1.1324531E3,2.3878906E1,1.878125E2,0E0,0E0,0E0,0E0,1.4509422E5,5.363281E2,1.3489844E2,1.457461E2,0E0,0E0,4.265625E0,3.6054688E0,1.5385677E5,4.3927656E3,1.35E1,5.8976562E1,0E0,1.121875E1,8.933008E1,0E0,0E0,0E0,3.3289062E1,0E0,0E0,0E0,0E0,0E0,0E0,0E0,0E0,0E0,0E0,0E0,0E0,0E0,0E0,0E0],"parents":[2147483647,0,0,1,1,2,2,3,3,4,4,5,5,6,6,7,7,8,8,9,9,10,10,15,15,16,16,17,17,18,18,21,21,22,22,23,23,24,24,25,25,26,26,28,28,29,29,33,33],"right_children":[2,4,6,8,10,12,14,16,18,20,22,-1,-1,-1,-1,24,26,28,30,-1,-1,32,34,36,38,40,42,-1,44,46,-1,-1,-1,48,-1,-1,-1,-1,-1,-1,-1,-1,-1,-1,-1,-1,-1,-1,-1],"split_conditions":[1E0,1E0,-5E-1,1E0,-5E-1,6E0,1E1,1E0,9E0,6E0,1E1,-4.782184E-1,-5.077612E-1,-4.6794492E-1,-4.468498E-1,1E0,8E0,5E0,1.2E1,-4.3581796E-1,-4.6496508E-1,3E0,1.2E1,1E0,9E0,6E0,1.2E1,-4.0136147E-1,8E0,1.1E1,-3.4950334E-1,-4.037296E-1,-4.1816193E-1,1.1E1,-3.887462E-1,1.1548139E-1,-3.001301E-1,-3.5958013E-1,-2.129535E-1,-3.4460372E-1,-3.5987014E-1,-2.9307327E-1,-3.263238E-1,-3.7536618E-1,-3.5472834E-1,-3.1231737E-1,-2.6823422E-1,-3.8738212E-1,-3.518576E-1],"split_indices":[7,11,28,23,28,1,1,10,1,1,1,0,0,0,0,4,1,1,1,0,0,1,1,12,1,1,1,0,1,1,0,0,0,1,0,0,0,0,0,0,0,0,0,0,0,0,0,0,0],"split_type":[0,0,0,0,0,0,0,0,0,0,0,0,0,0,0,0,0,0,0,0,0,0,0,0,0,0,0,0,0,0,0,0,0,0,0,0,0,0,0,0,0,0,0,0,0,0,0,0,0],"sum_hessian":[2.32989E5,2.2358E5,9.409E3,2.14322E5,9.258E3,2.334E3,7.075E3,2.05022E5,9.3E3,2.374E3,6.884E3,7.97E2,1.537E3,4.733E3,2.342E3,1.95719E5,9.303E3,6.237E3,3.063E3,7.83E2,1.591E3,4.597E3,2.287E3,1.86468E5,9.251E3,5.443E3,3.86E3,3.098E3,3.139E3,2.281E3,7.82E2,1.541E3,3.056E3,1.488E3,7.99E2,1.7709E5,9.378E3,6.193E3,3.058E3,3.91E3,1.533E3,3.094E3,7.66E2,2.362E3,7.77E2,1.527E3,7.54E2,7.6E2,7.28E2],"tree_param":{"num_deleted":"0","num_feature":"33","num_nodes":"49","size_leaf_vector":"1"}},{"base_weights":[4.023528E-3,1.822782E-1,-4.239084E0,6.4817816E-3,4.191519E0,-4.3474975E0,-3.9475727E0,-1.8140326E-1,4.154397E0,5.091457E0,3.8901331E0,-4.5171795E0,-4.112725E0,-4.023807E0,-3.7261982E0,-3.8736776E-1,4.147503E0,5.817362E0,3.325735E0,4.9061956E0,8.096145E-1,3.530087E0,4.180392E0,-4.6855907E0,-4.3901052E0,-4.239576E0,-4.0010815E0,-3.8749754E0,-4.080249E0,-3.2899725E0,-3.9507725E0,-6.0521007E-1,3.9694498E0,5.2148924E0,3.3693492E0,5.1572046E0,7.7302184E0,2.6213725E0,4.5074787E0,3.6447303E0,5.1327558E0,3.4288294E0,4.8109674E0,3.6094248E0,4.3190536E0,-4.589908E-1,-4.863914E0,-4.2558975E0,-4.4566965E0,-4.3518405E0,-4.0574655E-1,-3.9034382E-1,-4.1649804E-1,-3.248201E0,-3.9282483E-1,-4.3827524E0,-4.0012714E-1,-3.0894563E-1,-3.979881E-1,-3.7920349E0,-4.299148E-1,-8.343723E-2,3.7548038E-1,2.8069052E-1,4.3581733E-1,5.4188347E-1,4.4217235E-1,2.930385E-1,3.94376E-1,5.2793306E-1,4.7765872E-1,7.391386E-1,8.659422E-1,4.0351653E-1,2.258846E-1,4.1063553E-1,5.905362E-1,3.4740683E-1,3.937812E-1,4.7493526E-1,5.345101E-1,3.1599337E-1,3.6604118E-1,4.4129953E-1,6.331322E-1,3.868465E-1,3.5368368E-1,4.2649037E-1,5.1373905E-1,-5.286101E-1,-4.7531053E-1,-4.3923208E-1,-3.081363E-1,-4.8235875E-1,-4.3344602E-1,-4.2096764E-1,-4.7528186E-1,-2.3171122E-1,-4.2432556E-1,-4.941158E-1,-3.9336756E-1,-4.086329E-1,-3.4979507E-1],"categories":[],"categories_nodes":[],"categories_segments":[],"categories_sizes":[],"default_left":[0,0,0,0,0,0,0,0,0,0,0,0,0,0,0,0,0,0,0,0,0,0,0,0,0,0,0,0,0,0,0,0,0,0,0,0,0,0,0,0,0,0,0,0,0,0,0,0,0,0,0,0,0,0,0,0,0,0,0,0,0,0,0,0,0,0,0,0,0,0,0,0,0,0,0,0,0,0,0,0,0,0,0,0,0,0,0,0,0,0,0,0,0,0,0,0,0,0,0,0,0,0,0],"id":11,"left_children":[1,3,5,7,9,11,13,15,17,19,21,23,25,27,29,31,33,35,37,39,-1,41,43,45,47,49,51,53,55,57,59,61,63,65,67,69,71,73,75,77,79,81,83,85,87,-1,89,91,93,95,-1,-1,-1,97,-1,99,-1,-1,-1,101,-1,-1,-1,-1,-1,-1,-1,-1,-1,-1,-1,-1,-1,-1,-1,-1,-1,-1,-1,-1,-1,-1,-1,-1,-1,-1,-1,-1,-1,-1,-1,-1,-1,-1,-1,-1,-1,-1,-1,-1,-1,-1,-1],"loss_changes":[1.7606555E5,1.5745244E5,2.794375E2,1.6678856E5,2.5253906E3,2.5354688E2,2.8121094E1,1.8254888E5,1.2760547E4,1.2689727E3,7.2034375E2,6.40625E1,2.3785156E1,5.078125E-2,5.244336E1,1.8549719E5,7.706125E3,3.8533047E3,5.142258E3,6.1490625E2,0E0,3.9153516E2,2.923125E2,6.4414062E0,1.3203125E0,9.533203E0,8.517578E0,5.2373047E0,1.4716797E1,1.9937012E1,7.8081055E0,1.8598197E5,4.193672E3,6.099844E2,1.3452422E3,8.146094E1,1.8440234E2,1.9805566E3,1.271582E3,3.3759766E0,1.2742578E2,1.7020312E2,1.1001367E2,7.207031E-1,1.1651953E2,0E0,1.6347656E0,1.1064746E2,4.6183594E1,2.6108398E1,0E0,0E0,0E0,3.463913E1,0E0,4.8019043E1,0E0,0E0,0E0,1.2362793E1,0E0,0E0,0E0,0E0,0E0,0E0,0E0,0E0,0E0,0E0,0E0,0E0,0E0,0E0,0E0,0E0,0E0,0E0,0E0,0E0,0E0,0E0,0E0,0E0,0E0,0E0,0E0,0E0,0E0,0E0,0E0,0E0,0E0,0E0,0E0,0E0,0E0,0E0,0E0,0E0,0E0,0E0,0E0],"parents":[2147483647,0,0,1,1,2,2,3,3,4,4,5,5,6,6,7,7,8,8,9,9,10,10,11,11,12,12,13,13,14,14,15,15,16,16,17,17,18,18,19,19,21,21,22,22,23,23,24,24,25,25,26,26,27,27,28,28,29,29,30,30,31,31,32,32,33,33,34,34,35,35,36,36,37,37,38,38,39,39,40,40,41,41,42,42,43,43,44,44,46,46,47,47,48,48,49,49,53,53,55,55,59,59],"right_children":[2,4,6,8,10,12,14,16,18,20,22,24,26,28,30,32,34,36,38,40,-1,42,44,46,48,50,52,54,56,58,60,62,64,66,68,70,72,74,76,78,80,82,84,86,88,-1,90,92,94,96,-1,-1,-1,98,-1,100,-1,-1,-1,102,-1,-1,-1,-1,-1,-1,-1,-1,-1,-1,-1,-1,-1,-1,-1,-1,-1,-1,-1,-1,-1,-1,-1,-1,-1,-1,-1,-1,-1,-1,-1,-1,-1,-1,-1,-1,-1,-1,-1,-1,-1,-1,-1],"split_conditions":[1E0,1E0,2.016E3,1E0,-5E-1,5E-1,2.023E3,1E0,5E0,2.023E3,-1.8369701E-16,-5E-1,2.002E3,2.018E3,-2.4492937E-16,1E0,6E0,2.017E3,1E1,1.995E3,8.096145E-1,2.023E3,1.997E3,7E0,1.999E3,1.1E1,2.011E3,2E0,2.019E3,1.1E1,2.025E3,1E0,-5E-1,5E0,1E1,4E0,1E0,6E0,2.017E3,1E1,2.005E3,2.005E3,7E0,2E0,2.024E3,-4.589908E-1,1.995E3,1.998E3,2.003E3,1.999E3,-4.0574655E-1,-3.9034382E-1,-4.1649804E-1,2.017E3,-3.9282483E-1,-1.8369701E-16,-4.0012714E-1,-3.0894563E-1,-3.979881E-1,2.024E3,-4.299148E-1,-8.343723E-2,3.7548038E-1,2.8069052E-1,4.3581733E-1,5.4188347E-1,4.4217235E-1,2.930385E-1,3.94376E-1,5.2793306E-1,4.7765872E-1,7.391386E-1,8.659422E-1,4.0351653E-1,2.258846E-1,4.1063553E-1,5.905362E-1,3.4740683E-1,3.937812E-1,4.7493526E-1,5.345101E-1,3.1599337E-1,3.6604118E-1,4.4129953E-1,6.331322E-1,3.868465E-1,3.5368368E-1,4.2649037E-1,5.1373905E-1,-5.286101E-1,-4.7531053E-1,-4.3923208E-1,-3.081363E-1,-4.8235875E-1,-4.3344602E-1,-4.2096764E-1,-4.7528186E-1,-2.3171122E-1,-4.2432556E-1,-4.941158E-1,-3.9336756E-1,-4.086329E-1,-3.4979507E-1],"split_indices":[7,21,0,15,27,28,0,20,1,0,28,28,0,0,27,22,1,0,1,0,0,0,0,1,0,1,0,1,0,1,0,26,28,1,1,1,27,1,0,1,0,0,1,1,0,0,0,0,0,0,0,0,0,0,0,28,0,0,0,0,0,0,0,0,0,0,0,0,0,0,0,0,0,0,0,0,0,0,0,0,0,0,0,0,0,0,0,0,0,0,0,0,0,0,0,0,0,0,0,0,0,0,0],"split_type":[0,0,0,0,0,0,0,0,0,0,0,0,0,0,0,0,0,0,0,0,0,0,0,0,0,0,0,0,0,0,0,0,0,0,0,0,0,0,0,0,0,0,0,0,0,0,0,0,0,0,0,0,0,0,0,0,0,0,0,0,0,0,0,0,0,0,0,0,0,0,0,0,0,0,0,0,0,0,0,0,0,0,0,0,0,0,0,0,0,0,0,0,0,0,0,0,0,0,0,0,0,0,0],"sum_hessian":[2.3278E5,2.23396E5,9.384E3,2.14013E5,9.383E3,6.83E3,2.554E3,2.0474E5,9.273E3,2.35E3,7.033E3,3.954E3,2.876E3,1.887E3,6.67E2,1.95442E5,9.298E3,3.082E3,6.191E3,2.216E3,1.34E2,3.145E3,3.888E3,1.685E3,2.269E3,1.329E3,1.547E3,5.38E2,1.349E3,2.32E2,4.35E2,1.86136E5,9.306E3,3.918E3,5.38E3,2.294E3,7.88E2,3.881E3,2.31E3,3.4E2,1.876E3,2.918E3,2.27E2,7.65E2,3.123E3,1.114E3,5.71E2,7.74E2,1.495E3,8.08E2,5.21E2,9.85E2,5.62E2,4.7E1,4.91E2,2.68E2,1.081E3,1.84E2,4.8E1,3.07E2,1.28E2,1.76842E5,9.294E3,2.334E3,6.972E3,3.112E3,8.06E2,3.053E3,2.327E3,1.727E3,5.67E2,5.84E2,2.04E2,7.9E2,3.091E3,1.798E3,5.12E2,2.23E2,1.17E2,6.77E2,1.199E3,1.357E3,1.561E3,1.83E2,4.4E1,1.56E2,6.09E2,2.935E3,1.88E2,1.09E2,4.62E2,6.91E2,8.3E1,3.64E2,1.131E3,6.05E2,2.03E2,2.6E1,2.1E1,1.15E2,1.53E2,1.47E2,1.6E2],"tree_param":{"num_deleted":"0","num_feature":"33","num_nodes":"103","size_leaf_vector":"1"}},{"base_weights":[7.037875E-4,1.590067E-1,-3.8065784E0,6.147459E-4,3.7868474E0,-3.9061856E0,-3.5381148E0,-1.687769E-1,3.7327068E0,4.6199355E0,3.5105078E0,-4.2125926E0,-3.8044658E0,-3.4055698E0,-3.6242914E0,-3.5229298E-1,3.729168E0,4.678625E0,3.0400746E0,4.4424734E0,7.405278E-1,3.1990952E0,3.7643633E0,-3.9968163E-1,-4.31806E0,-3.7385368E0,-4.032726E0,-3.5848901E0,-3.0464122E-1,-3.175546E0,-3.6730285E0,-5.474404E-1,3.5637245E0,5.240068E0,2.9775262E0,4.8576174E0,3.9950716E0,3.4430344E0,2.4906163E0,3.5168955E0,4.6835713E0,3.1087883E0,4.354616E0,3.2062907E0,3.896824E0,-4.7002298E-1,-4.2248144E0,-3.894981E0,-3.699919E0,-4.1747017E0,-3.8324823E0,-3.664537E0,-3.2119339E0,-2.1495382E-1,-3.3642125E0,-3.973949E-1,-3.621455E-1,-7.601776E-2,3.5024366E-1,4.6800336E-1,3.1900963E-1,4.644389E-1,7.001801E-1,2.3494E-1,4.0504393E-1,4.3811056E-1,5.1243216E-1,3.838751E-1,4.3127313E-1,3.1990582E-1,4.1416463E-1,2.261009E-1,2.9836363E-1,3.3099234E-1,3.996212E-1,5.075244E-1,4.4902584E-1,2.8657767E-1,3.31558E-1,3.974294E-1,5.8460855E-1,3.125734E-1,3.3977845E-1,3.854841E-1,4.5778975E-1,-3.577617E-1,-4.364972E-1,-3.6316347E-1,-4.2613325E-1,-3.4627137E-1,-3.7542525E-1,-4.0271145E-1,-4.4525987E-1,-3.6079782E-1,-4.086779E-1,-4.0709278E-1,-3.5773745E-1,-2.850331E-1,-3.5282934E-1,-4.1508737E-1,-3.2007238E-1],"categories":[],"categories_nodes":[],"categories_segments":[],"categories_sizes":[],"default_left":[0,0,0,0,0,0,0,0,0,0,0,0,0,0,0,0,0,0,0,0,0,0,0,0,0,0,0,0,0,0,0,0,0,0,0,0,0,0,0,0,0,0,0,0,0,0,0,0,0,0,0,0,0,0,0,0,0,0,0,0,0,0,0,0,0,0,0,0,0,0,0,0,0,0,0,0,0,0,0,0,0,0,0,0,0,0,0,0,0,0,0,0,0,0,0,0,0,0,0,0,0],"id":12,"left_children":[1,3,5,7,9,11,13,15,17,19,21,23,25,27,29,31,33,35,37,39,-1,41,43,-1,45,47,49,51,-1,53,55,57,59,61,63,65,67,69,71,73,75,77,79,81,83,-1,85,87,89,91,93,95,97,-1,99,-1,-1,-1,-1,-1,-1,-1,-1,-1,-1,-1,-1,-1,-1,-1,-1,-1,-1,-1,-1,-1,-1,-1,-1,-1,-1,-1,-1,-1,-1,-1,-1,-1,-1,-1,-1,-1,-1,-1,-1,-1,-1,-1,-1,-1,-1],"loss_changes":[1.4050294E5,1.2860874E5,2.3503125E2,1.3557466E5,2.1392969E3,1.9522656E2,1.6541016E1,1.467474E5,6.086086E3,1.1183125E3,5.4409375E2,2.0972656E1,6.1664062E1,5.432129E1,2.1515625E1,1.4972417E5,1.0459703E4,4.6192188E2,1.182168E3,4.726836E2,0E0,3.1683594E2,2.7358594E2,0E0,1.991211E1,9.5703125E0,1.6126953E1,8.131836E0,0E0,2.2965942E1,6.7441406E0,1.6078775E5,3.8639453E3,3.181875E3,4.143207E3,3.7317188E2,2.4262695E1,5.151289E2,2.5123926E2,3.2109863E1,1.0865234E2,1.3824219E2,1.055293E2,9.1748047E-1,7.164844E1,0E0,6.66582E1,5.8521484E1,2.8296875E1,8.728516E0,1.2715332E1,4.741211E0,4.3571777E0,0E0,3.4335938E0,0E0,0E0,0E0,0E0,0E0,0E0,0E0,0E0,0E0,0E0,0E0,0E0,0E0,0E0,0E0,0E0,0E0,0E0,0E0,0E0,0E0,0E0,0E0,0E0,0E0,0E0,0E0,0E0,0E0,0E0,0E0,0E0,0E0,0E0,0E0,0E0,0E0,0E0,0E0,0E0,0E0,0E0,0E0,0E0,0E0,0E0],"parents":[2147483647,0,0,1,1,2,2,3,3,4,4,5,5,6,6,7,7,8,8,9,9,10,10,11,11,12,12,13,13,14,14,15,15,16,16,17,17,18,18,19,19,21,21,22,22,24,24,25,25,26,26,27,27,29,29,30,30,31,31,32,32,33,33,34,34,35,35,36,36,37,37,38,38,39,39,40,40,41,41,42,42,43,43,44,44,46,46,47,47,48,48,49,49,50,50,51,51,52,52,54,54],"right_children":[2,4,6,8,10,12,14,16,18,20,22,24,26,28,30,32,34,36,38,40,-1,42,44,-1,46,48,50,52,-1,54,56,58,60,62,64,66,68,70,72,74,76,78,80,82,84,-1,86,88,90,92,94,96,98,-1,100,-1,-1,-1,-1,-1,-1,-1,-1,-1,-1,-1,-1,-1,-1,-1,-1,-1,-1,-1,-1,-1,-1,-1,-1,-1,-1,-1,-1,-1,-1,-1,-1,-1,-1,-1,-1,-1,-1,-1,-1,-1,-1,-1,-1,-1,-1],"split_conditions":[1E0,1E0,2.016E3,1E0,-5E-1,-5E-1,-2.4492937E-16,1E0,6E0,2.023E3,-1.8369701E-16,6E0,1E0,2.022E3,2.017E3,1E0,5E0,5E0,1E0,1.997E3,7.405278E-1,2.023E3,1.997E3,-3.9968163E-1,1.995E3,1.995E3,2.005E3,1.1E1,-3.0464122E-1,2E0,2E0,1E0,-5E-1,2.017E3,1E1,2.003E3,2.014E3,1.2E1,2.014E3,1.995E3,-8.660254E-1,2.005E3,7E0,1.995E3,2.024E3,-4.7002298E-1,1.999E3,1.993E3,1.999E3,2E3,2.011E3,2.017E3,2.019E3,-2.1495382E-1,-8.660254E-1,-3.973949E-1,-3.621455E-1,-7.601776E-2,3.5024366E-1,4.6800336E-1,3.1900963E-1,4.644389E-1,7.001801E-1,2.3494E-1,4.0504393E-1,4.3811056E-1,5.1243216E-1,3.838751E-1,4.3127313E-1,3.1990582E-1,4.1416463E-1,2.261009E-1,2.9836363E-1,3.3099234E-1,3.996212E-1,5.075244E-1,4.4902584E-1,2.8657767E-1,3.31558E-1,3.974294E-1,5.8460855E-1,3.125734E-1,3.3977845E-1,3.854841E-1,4.5778975E-1,-3.577617E-1,-4.364972E-1,-3.6316347E-1,-4.2613325E-1,-3.4627137E-1,-3.7542525E-1,-4.0271145E-1,-4.4525987E-1,-3.6079782E-1,-4.086779E-1,-4.0709278E-1,-3.5773745E-1,-2.850331E-1,-3.5282934E-1,-4.1508737E-1,-3.2007238E-1],"split_indices":[7,21,0,20,27,28,27,15,1,0,28,1,29,0,0,22,1,1,29,0,0,0,0,0,0,0,0,1,0,1,1,9,27,0,1,0,0,1,0,0,27,0,1,0,0,0,0,0,0,0,0,0,0,0,28,0,0,0,0,0,0,0,0,0,0,0,0,0,0,0,0,0,0,0,0,0,0,0,0,0,0,0,0,0,0,0,0,0,0,0,0,0,0,0,0,0,0,0,0,0,0],"split_type":[0,0,0,0,0,0,0,0,0,0,0,0,0,0,0,0,0,0,0,0,0,0,0,0,0,0,0,0,0,0,0,0,0,0,0,0,0,0,0,0,0,0,0,0,0,0,0,0,0,0,0,0,0,0,0,0,0,0,0,0,0,0,0,0,0,0,0,0,0,0,0,0,0,0,0,0,0,0,0,0,0,0,0,0,0,0,0,0,0,0,0,0,0,0,0,0,0,0,0,0,0],"sum_hessian":[2.33119E5,2.23814E5,9.305E3,2.14452E5,9.362E3,6.777E3,2.528E3,2.05142E5,9.31E3,2.328E3,7.034E3,1.679E3,5.098E3,1.012E3,1.516E3,1.95919E5,9.223E3,3.933E3,5.377E3,2.191E3,1.37E2,3.165E3,3.869E3,5.64E2,1.115E3,3.969E3,1.129E3,6.69E2,3.43E2,1.55E2,1.361E3,1.8662E5,9.299E3,3.062E3,6.161E3,3.112E3,8.21E2,3.099E3,2.278E3,4.56E2,1.735E3,2.939E3,2.26E2,7.47E2,3.122E3,2.09E2,9.06E2,7.66E2,3.203E3,6.49E2,4.8E2,5.44E2,1.25E2,2.6E1,1.29E2,1.88E2,1.173E3,1.77307E5,9.313E3,2.329E3,6.97E3,2.291E3,7.71E2,3.888E3,2.273E3,1.123E3,1.989E3,5.59E2,2.62E2,2.301E3,7.98E2,1.558E3,7.2E2,3.24E2,1.32E2,5.65E2,1.17E3,1.358E3,1.581E3,1.83E2,4.3E1,5.38E2,2.09E2,2.947E3,1.75E2,1.66E2,7.4E2,4.52E2,3.14E2,6.09E2,2.594E3,4.34E2,2.15E2,2.63E2,2.17E2,8.8E1,4.56E2,6.3E1,6.2E1,1.8E1,1.11E2],"tree_param":{"num_deleted":"0","num_feature":"33","num_nodes":"101","size_leaf_vector":"1"}},{"base_weights":[2.5005778E-3,-1.7802489E-1,4.30591E0,-3.3720073E-1,3.4621723E0,3.5824637E0,4.552483E0,-5.055868E-1,3.3597264E0,3.8094504E0,2.3598597E0,3.3255253E0,3.7659488E0,4.491522E0,5.365761E0,-6.822318E-1,3.2102485E0,4.224367E0,2.729094E0,3.697665E0,4.714054E0,1.3757597E0,2.9897425E0,3.768975E0,3.0994987E0,3.7011182E-1,4.2228713E0,4.1960673E0,4.575817E0,6.215459E0,4.843281E0,-8.730597E-1,3.131674E0,2.7162044E0,3.9139712E0,4.499517E0,3.8041823E0,2.4540617E0,3.4066954E0,4.47831E0,3.6256573E0,4.6302795E-1,5.508976E-1,1.1428599E0,2.0386446E0,3.3272157E0,2.5056777E0,4.2319517E0,3.49646E0,3.2234774E0,2.9015028E-1,4.4328642E-1,3.3162454E-1,3.913483E-1,4.4033018E-1,4.289635E0,4.624813E0,5.0823295E-1,6.502908E0,4.3114024E-1,5.103563E0,-1.0839442E-1,3.1150705E-1,6.0130453E-1,1.6958146E-1,3.101209E-1,2.2054212E-1,3.054475E-1,4.5399386E-1,4.3183097E-1,5.352719E-1,3.4730542E-1,3.988349E-1,2.3771933E-1,3.6287934E-1,3.046455E-1,3.7437358E-1,3.8176435E-1,4.714275E-1,3.4501198E-1,3.8388237E-1,1.2325706E-1,6.896253E-2,3.2461995E-1,8.7559156E-2,3.0100057E-1,3.4676597E-1,2.3382123E-1,2.9671052E-1,3.469151E-1,4.4181094E-1,3.2369316E-1,3.8810927E-1,3.0384687E-1,3.8075015E-1,3.691515E-1,4.388538E-1,4.8739788E-1,4.5227915E-1,6.95723E-1,5.517184E-1,5.528801E-1,4.4854757E-1],"categories":[],"categories_nodes":[],"categories_segments":[],"categories_sizes":[],"default_left":[0,0,0,0,0,0,0,0,0,0,0,0,0,0,0,0,0,0,0,0,0,0,0,0,0,0,0,0,0,0,0,0,0,0,0,0,0,0,0,0,0,0,0,0,0,0,0,0,0,0,0,0,0,0,0,0,0,0,0,0,0,0,0,0,0,0,0,0,0,0,0,0,0,0,0,0,0,0,0,0,0,0,0,0,0,0,0,0,0,0,0,0,0,0,0,0,0,0,0,0,0,0,0],"id":13,"left_children":[1,3,5,7,9,11,13,15,17,19,21,23,25,27,29,31,33,35,37,39,41,43,45,47,49,-1,51,53,55,57,59,61,63,65,67,69,71,73,75,77,79,-1,-1,81,83,85,87,89,91,93,-1,-1,-1,-1,-1,95,97,-1,99,-1,101,-1,-1,-1,-1,-1,-1,-1,-1,-1,-1,-1,-1,-1,-1,-1,-1,-1,-1,-1,-1,-1,-1,-1,-1,-1,-1,-1,-1,-1,-1,-1,-1,-1,-1,-1,-1,-1,-1,-1,-1,-1,-1],"loss_changes":[1.8084405E5,1.29453125E5,1.6555E3,1.3325205E5,3.5740938E3,1.0000781E2,3.2226562E2,1.3438295E5,5.073117E3,7.0214844E2,1.3874902E3,8.884961E1,2.5398438E1,1.4279688E2,1.8388086E2,1.4224316E5,3.2195703E3,4.373672E2,9.970664E2,3.4003906E2,2.636914E1,1.332207E2,2.1513867E2,2.734375E1,7.09375E0,0E0,1.6713135E1,6.80332E1,5.0976562E1,2.5578613E1,1.994336E1,1.565427E5,3.851996E4,1.0672812E3,2.0467344E3,3.4330078E2,8.140234E1,3.382168E2,1.7739453E2,6.478125E1,2.0408594E2,0E0,0E0,2.566034E1,3.159679E2,2.533496E1,3.6799072E1,1.5708008E0,8.998779E0,3.197461E1,0E0,0E0,0E0,0E0,0E0,2.828418E1,8.7234375E1,0E0,2.43125E1,0E0,2.7242188E1,0E0,0E0,0E0,0E0,0E0,0E0,0E0,0E0,0E0,0E0,0E0,0E0,0E0,0E0,0E0,0E0,0E0,0E0,0E0,0E0,0E0,0E0,0E0,0E0,0E0,0E0,0E0,0E0,0E0,0E0,0E0,0E0,0E0,0E0,0E0,0E0,0E0,0E0,0E0,0E0,0E0,0E0],"parents":[2147483647,0,0,1,1,2,2,3,3,4,4,5,5,6,6,7,7,8,8,9,9,10,10,11,11,12,12,13,13,14,14,15,15,16,16,17,17,18,18,19,19,20,20,21,21,22,22,23,23,24,24,26,26,27,27,28,28,29,29,30,30,31,31,32,32,33,33,34,34,35,35,36,36,37,37,38,38,39,39,40,40,43,43,44,44,45,45,46,46,47,47,48,48,49,49,55,55,56,56,58,58,60,60],"right_children":[2,4,6,8,10,12,14,16,18,20,22,24,26,28,30,32,34,36,38,40,42,44,46,48,50,-1,52,54,56,58,60,62,64,66,68,70,72,74,76,78,80,-1,-1,82,84,86,88,90,92,94,-1,-1,-1,-1,-1,96,98,-1,100,-1,102,-1,-1,-1,-1,-1,-1,-1,-1,-1,-1,-1,-1,-1,-1,-1,-1,-1,-1,-1,-1,-1,-1,-1,-1,-1,-1,-1,-1,-1,-1,-1,-1,-1,-1,-1,-1,-1,-1,-1,-1,-1,-1],"split_conditions":[1E0,1E0,-5E-1,1E0,2.017E3,2.005E3,2.023E3,1E0,6E0,2.014E3,-2.4492937E-16,6E0,2.023E3,-1.8369701E-16,-2.4492937E-16,1E0,8E0,4E0,1.1E1,1.992E3,1.2E1,2.023E3,5E0,1.995E3,1.999E3,3.7011182E-1,2.025E3,2.004E3,1.995E3,9E0,2.024E3,1E0,5E0,5E0,2.005E3,2.02E3,2.003E3,2.023E3,1.2E1,-5E-1,2.004E3,4.6302795E-1,5.508976E-1,2.022E3,2.024E3,2.02E3,2.023E3,1.991E3,2.001E3,1.997E3,2.9015028E-1,4.4328642E-1,3.3162454E-1,3.913483E-1,4.4033018E-1,-8.660254E-1,-5E-1,5.0823295E-1,1.1E1,4.3114024E-1,2.025E3,-1.0839442E-1,3.1150705E-1,6.0130453E-1,1.6958146E-1,3.101209E-1,2.2054212E-1,3.054475E-1,4.5399386E-1,4.3183097E-1,5.352719E-1,3.4730542E-1,3.988349E-1,2.3771933E-1,3.6287934E-1,3.046455E-1,3.7437358E-1,3.8176435E-1,4.714275E-1,3.4501198E-1,3.8388237E-1,1.2325706E-1,6.896253E-2,3.2461995E-1,8.7559156E-2,3.0100057E-1,3.4676597E-1,2.3382123E-1,2.9671052E-1,3.469151E-1,4.4181094E-1,3.2369316E-1,3.8810927E-1,3.0384687E-1,3.8075015E-1,3.691515E-1,4.388538E-1,4.8739788E-1,4.5227915E-1,6.95723E-1,5.517184E-1,5.528801E-1,4.4854757E-1],"split_indices":[16,26,28,20,0,0,0,22,1,0,27,1,0,28,27,9,1,1,1,0,1,0,1,0,0,0,0,0,0,1,0,19,1,1,0,0,0,0,1,27,0,0,0,0,0,0,0,0,0,0,0,0,0,0,0,27,27,0,1,0,0,0,0,0,0,0,0,0,0,0,0,0,0,0,0,0,0,0,0,0,0,0,0,0,0,0,0,0,0,0,0,0,0,0,0,0,0,0,0,0,0,0,0],"split_type":[0,0,0,0,0,0,0,0,0,0,0,0,0,0,0,0,0,0,0,0,0,0,0,0,0,0,0,0,0,0,0,0,0,0,0,0,0,0,0,0,0,0,0,0,0,0,0,0,0,0,0,0,0,0,0,0,0,0,0,0,0,0,0,0,0,0,0,0,0,0,0,0,0,0,0,0,0,0,0,0,0,0,0,0,0,0,0,0,0,0,0,0,0,0,0,0,0,0,0,0,0,0,0],"sum_hessian":[2.32782E5,2.23411E5,9.371E3,2.14052E5,9.359E3,2.386E3,6.985E3,2.04728E5,9.324E3,7.115E3,2.244E3,1.002E3,1.384E3,6.504E3,4.81E2,1.95438E5,9.29E3,3.93E3,5.394E3,6.337E3,7.78E2,8.77E2,1.367E3,3.33E2,6.69E2,1.22E3,1.64E2,1.455E3,5.049E3,1.79E2,3.02E2,1.86126E5,9.312E3,5.461E3,3.829E3,2.369E3,1.561E3,3.84E3,1.554E3,5.3E2,5.807E3,7.1E2,6.8E1,6.51E2,2.26E2,8.02E2,5.65E2,1.18E2,2.15E2,4.02E2,2.67E2,1.3E2,3.4E1,6.24E2,8.31E2,7.51E2,4.298E3,4E1,1.39E2,1.05E2,1.97E2,1.76779E5,9.347E3,3.096E3,6.216E3,3.111E3,2.35E3,1.616E3,2.213E3,1.959E3,4.1E2,5.65E2,9.96E2,3.607E3,2.33E2,7.56E2,7.98E2,1.44E2,3.86E2,3.194E3,2.613E3,5.42E2,1.09E2,1.1E2,1.16E2,2.53E2,5.49E2,4.19E2,1.46E2,2.7E1,9.1E1,1.34E2,8.1E1,3.1E2,9.2E1,1.12E2,6.39E2,1.235E3,3.063E3,9.1E1,4.8E1,1.12E2,8.5E1],"tree_param":{"num_deleted":"0","num_feature":"33","num_nodes":"103","size_leaf_vector":"1"}},{"base_weights":[-1.6217701E-3,-1.631717E-1,3.8656085E0,-3.2429004E-1,3.5182605E0,3.219022E0,4.0821857E0,-4.8087227E-1,3.1134145E0,4.2390027E0,3.2787068E0,2.9932013E0,3.3788197E0,4.0274615E0,4.8255625E0,-6.471157E-1,3.0271108E0,3.4278278E0,2.1213012E0,4.0733466E0,6.8706506E-1,2.907967E0,3.4644446E0,3.3735282E0,2.7931666E0,3.2424827E0,3.5272698E0,3.7627494E0,4.10259E0,5.7784015E-1,4.4612265E0,-8.243987E-1,2.906119E0,3.8010964E0,2.4639502E0,3.3254907E0,4.2687697E0,1.2340971E0,2.708146E0,3.0289118E0,4.2564993E0,2.8261237E0,4.0614634E0,3.027635E0,3.5710738E0,3.6860684E-1,3.1346684E0,2.9474516E0,2.5426176E-1,3.6752397E-1,3.1936383E-1,3.2556655E0,3.6557996E0,3.542475E0,3.9248111E0,4.26176E0,4.0385733E0,4.830416E-1,4.121329E0,-1.0146882E-1,2.8054214E-1,3.8256583E-1,2.6005936E-1,3.9566618E-1,3.1910166E-1,2.8096488E-1,1.9998406E-1,3.6518154E-1,3.16022E-1,4.1115972E-1,4.7268495E-1,1.029612E-1,1.8166728E-1,2.987347E-1,2.2894983E-1,2.8173998E-1,3.4192267E-1,3.914487E-1,4.4414052E-1,2.5955197E-1,3.022984E-1,3.598772E-1,5.17216E-1,3.4005508E-1,2.9506883E-1,3.5261226E-1,4.2466217E-1,2.810293E-1,3.5424283E-1,2.7898335E-1,3.459799E-1,3.0963188E-1,3.9428768E-1,3.6887318E-1,2.7978998E-1,3.678109E-1,3.393748E-1,3.958524E-1,3.2938108E-1,3.985785E-1,4.6283236E-1,4.1432658E-1,3.8545114E-1,3.5658208E-1,4.329985E-1],"categories":[],"categories_nodes":[],"categories_segments":[],"categories_sizes":[],"default_left":[0,0,0,0,0,0,0,0,0,0,0,0,0,0,0,0,0,0,0,0,0,0,0,0,0,0,0,0,0,0,0,0,0,0,0,0,0,0,0,0,0,0,0,0,0,0,0,0,0,0,0,0,0,0,0,0,0,0,0,0,0,0,0,0,0,0,0,0,0,0,0,0,0,0,0,0,0,0,0,0,0,0,0,0,0,0,0,0,0,0,0,0,0,0,0,0,0,0,0,0,0,0,0,0,0],"id":14,"left_children":[1,3,5,7,9,11,13,15,17,19,21,23,25,27,29,31,33,35,37,39,-1,41,43,45,47,49,51,53,55,-1,57,59,61,63,65,67,69,71,73,75,77,79,81,83,85,-1,87,89,-1,-1,-1,91,93,95,97,99,101,-1,103,-1,-1,-1,-1,-1,-1,-1,-1,-1,-1,-1,-1,-1,-1,-1,-1,-1,-1,-1,-1,-1,-1,-1,-1,-1,-1,-1,-1,-1,-1,-1,-1,-1,-1,-1,-1,-1,-1,-1,-1,-1,-1,-1,-1,-1,-1],"loss_changes":[1.4569064E5,1.3277514E5,1.2963281E3,1.1544284E5,1.6066484E3,7.472461E1,2.653672E2,1.1962366E5,2.907125E3,9.912656E2,4.753203E2,6.5362305E1,1.6270508E1,1.14375E2,1.3911816E2,1.2336753E5,4.0360156E3,5.9621875E2,1.1686445E3,4.0832812E2,0E0,2.1122656E2,2.0767969E2,1.3379639E1,1.7631836E1,3.6083984E0,1.0579102E1,3.8039062E1,3.4484375E1,0E0,2.3761719E1,1.2884491E5,2.6047812E3,3.581836E2,8.5675977E2,3.2973438E2,3.571582E1,1.0510669E2,1.514248E2,1.777539E1,1.009375E2,9.2296875E1,6.0528564E1,1.6566406E1,9.935547E1,0E0,1.5969116E1,2.2326904E1,0E0,0E0,0E0,1.1444824E1,1.7998047E0,1.6503906E-1,4.595703E0,1.26921875E2,5.411328E1,0E0,6.3513184E0,0E0,0E0,0E0,0E0,0E0,0E0,0E0,0E0,0E0,0E0,0E0,0E0,0E0,0E0,0E0,0E0,0E0,0E0,0E0,0E0,0E0,0E0,0E0,0E0,0E0,0E0,0E0,0E0,0E0,0E0,0E0,0E0,0E0,0E0,0E0,0E0,0E0,0E0,0E0,0E0,0E0,0E0,0E0,0E0,0E0,0E0],"parents":[2147483647,0,0,1,1,2,2,3,3,4,4,5,5,6,6,7,7,8,8,9,9,10,10,11,11,12,12,13,13,14,14,15,15,16,16,17,17,18,18,19,19,21,21,22,22,23,23,24,24,25,25,26,26,27,27,28,28,30,30,31,31,32,32,33,33,34,34,35,35,36,36,37,37,38,38,39,39,40,40,41,41,42,42,43,43,44,44,46,46,47,47,51,51,52,52,53,53,54,54,55,55,56,56,58,58],"right_children":[2,4,6,8,10,12,14,16,18,20,22,24,26,28,30,32,34,36,38,40,-1,42,44,46,48,50,52,54,56,-1,58,60,62,64,66,68,70,72,74,76,78,80,82,84,86,-1,88,90,-1,-1,-1,92,94,96,98,100,102,-1,104,-1,-1,-1,-1,-1,-1,-1,-1,-1,-1,-1,-1,-1,-1,-1,-1,-1,-1,-1,-1,-1,-1,-1,-1,-1,-1,-1,-1,-1,-1,-1,-1,-1,-1,-1,-1,-1,-1,-1,-1,-1,-1,-1,-1,-1,-1],"split_conditions":[1E0,1E0,-5E-1,1E0,-5E-1,2.005E3,2.023E3,1E0,2.017E3,2.023E3,-5E-1,6E0,2.016E3,-1.8369701E-16,-5E-1,1E0,6E0,2.014E3,-2.4492937E-16,1.995E3,6.8706506E-1,2.023E3,1.997E3,1.996E3,1.999E3,2.006E3,-8.660254E-1,2.004E3,-5E-1,5.7784015E-1,8.660254E-1,1E0,-5E-1,5E0,1E0,1.998E3,8.660254E-1,2.023E3,5E0,1E1,2.005E3,2.005E3,7E0,2E0,2.024E3,3.6860684E-1,2.001E3,1.997E3,2.5426176E-1,3.6752397E-1,3.1936383E-1,2.024E3,2.025E3,5E0,2.022E3,2.009E3,2.011E3,4.830416E-1,3E0,-1.0146882E-1,2.8054214E-1,3.8256583E-1,2.6005936E-1,3.9566618E-1,3.1910166E-1,2.8096488E-1,1.9998406E-1,3.6518154E-1,3.16022E-1,4.1115972E-1,4.7268495E-1,1.029612E-1,1.8166728E-1,2.987347E-1,2.2894983E-1,2.8173998E-1,3.4192267E-1,3.914487E-1,4.4414052E-1,2.5955197E-1,3.022984E-1,3.598772E-1,5.17216E-1,3.4005508E-1,2.9506883E-1,3.5261226E-1,4.2466217E-1,2.810293E-1,3.5424283E-1,2.7898335E-1,3.459799E-1,3.0963188E-1,3.9428768E-1,3.6887318E-1,2.7978998E-1,3.678109E-1,3.393748E-1,3.958524E-1,3.2938108E-1,3.985785E-1,4.6283236E-1,4.1432658E-1,3.8545114E-1,3.5658208E-1,4.329985E-1],"split_indices":[16,21,28,26,27,0,0,20,0,0,28,1,0,28,27,22,1,0,27,0,0,0,0,0,0,0,28,0,27,0,27,19,27,1,29,0,28,0,1,1,0,0,1,1,0,0,0,0,0,0,0,0,0,1,0,0,0,0,1,0,0,0,0,0,0,0,0,0,0,0,0,0,0,0,0,0,0,0,0,0,0,0,0,0,0,0,0,0,0,0,0,0,0,0,0,0,0,0,0,0,0,0,0,0,0],"split_type":[0,0,0,0,0,0,0,0,0,0,0,0,0,0,0,0,0,0,0,0,0,0,0,0,0,0,0,0,0,0,0,0,0,0,0,0,0,0,0,0,0,0,0,0,0,0,0,0,0,0,0,0,0,0,0,0,0,0,0,0,0,0,0,0,0,0,0,0,0,0,0,0,0,0,0,0,0,0,0,0,0,0,0,0,0,0,0,0,0,0,0,0,0,0,0,0,0,0,0,0,0,0,0,0,0],"sum_hessian":[2.33196E5,2.23846E5,9.35E3,2.14461E5,9.385E3,2.35E3,7E3,2.05119E5,9.342E3,2.337E3,7.048E3,9.82E2,1.368E3,6.526E3,4.74E2,1.95839E5,9.28E3,7.092E3,2.25E3,2.201E3,1.36E2,2.358E3,4.69E3,3.33E2,6.49E2,7.25E2,6.43E2,1.454E3,5.072E3,1.27E2,3.47E2,1.86533E5,9.306E3,3.906E3,5.374E3,6.327E3,7.65E2,8.97E2,1.353E3,3.31E2,1.87E3,2.205E3,1.53E2,9.26E2,3.764E3,1.38E2,1.95E2,3.95E2,2.54E2,6.6E1,6.59E2,2.15E2,4.28E2,6.26E2,8.28E2,1.436E3,3.636E3,1.6E2,1.87E2,1.77242E5,9.291E3,2.318E3,6.988E3,3.108E3,7.98E2,3.077E3,2.297E3,2.12E3,4.207E3,5.77E2,1.88E2,6.66E2,2.31E2,8.08E2,5.45E2,2.2E2,1.11E2,6.64E2,1.206E3,1.022E3,1.183E3,1.11E2,4.2E1,1.51E2,7.75E2,3.535E3,2.29E2,1.13E2,8.2E1,3.07E2,8.8E1,1.79E2,3.6E1,4.09E2,1.9E1,3.15E2,3.11E2,7.81E2,4.7E1,8.26E2,6.1E2,2.304E3,1.332E3,5.6E1,1.31E2],"tree_param":{"num_deleted":"0","num_feature":"33","num_nodes":"105","size_leaf_vector":"1"}},{"base_weights":[-1.4137205E-3,-1.4631239E-1,3.4719675E0,-2.8996477E-1,3.1587398E0,2.8729894E0,3.6738453E0,-4.3578672E-1,2.9152608E0,3.8081286E0,2.9436474E0,2.6666403E0,3.0198987E0,3.6258173E0,4.3244486E0,-5.8581156E-1,2.721386E0,5.52592E0,1.6307279E0,3.6735663E0,6.026559E-1,2.6540325E0,3.1814415E0,3.0019138E0,2.4936852E0,2.9611726E0,3.4369519E0,3.3725584E0,3.6980968E0,4.95856E0,3.9346085E0,-7.4501103E-1,2.6002371E0,3.4320626E0,2.2079082E0,5.9155793E0,4.369341E0,9.418129E-1,2.7701485E0,2.774827E-1,3.8282964E0,2.580288E0,3.5936322E0,2.8667157E0,3.336953E0,3.347728E-1,2.6801684E0,2.6341765E0,2.274864E-1,3.0890121E0,2.8926897E0,3.5861292E-1,2.7406123E-1,3.1647193E0,3.5248837E0,3.5652015E0,3.783574E0,4.0105507E-1,5.2060766E0,3.4272274E-1,4.1995177E0,-9.186006E-2,2.5240967E-1,1.6875789E-1,2.9045632E-1,3.5615486E-1,2.908724E-1,1.9754994E-1,2.7755988E-1,5.1693416E-1,6.311385E-1,4.1270328E-1,4.632151E-1,6.643893E-2,2.1095125E-1,1.4959924E-1,3.3962065E-1,4.1993833E-1,3.6422133E-1,2.2099414E-1,2.6993513E-1,3.3379218E-1,4.6785092E-1,2.6586154E-1,3.0137387E-1,3.2968697E-1,3.8354468E-1,2.3387311E-1,3.0741197E-1,2.489988E-1,3.1307453E-1,2.705018E-1,3.192576E-1,3.1855786E-1,2.8535795E-1,3.2780647E-1,2.9406452E-1,3.7335655E-1,3.438463E-1,3.2150212E-1,3.6242828E-1,4.022239E-1,3.686004E-1,5.5746585E-1,4.453252E-1,4.5795664E-1,3.656365E-1],"categories":[],"categories_nodes":[],"categories_segments":[],"categories_sizes":[],"default_left":[0,0,0,0,0,0,0,0,0,0,0,0,0,0,0,0,0,0,0,0,0,0,0,0,0,0,0,0,0,0,0,0,0,0,0,0,0,0,0,0,0,0,0,0,0,0,0,0,0,0,0,0,0,0,0,0,0,0,0,0,0,0,0,0,0,0,0,0,0,0,0,0,0,0,0,0,0,0,0,0,0,0,0,0,0,0,0,0,0,0,0,0,0,0,0,0,0,0,0,0,0,0,0,0,0,0,0],"id":15,"left_children":[1,3,5,7,9,11,13,15,17,19,21,23,25,27,29,31,33,35,37,39,-1,41,43,45,47,49,51,53,55,57,59,61,63,65,67,69,71,73,75,-1,77,79,81,83,85,-1,87,89,-1,91,93,-1,-1,95,97,99,101,-1,103,-1,105,-1,-1,-1,-1,-1,-1,-1,-1,-1,-1,-1,-1,-1,-1,-1,-1,-1,-1,-1,-1,-1,-1,-1,-1,-1,-1,-1,-1,-1,-1,-1,-1,-1,-1,-1,-1,-1,-1,-1,-1,-1,-1,-1,-1,-1,-1],"loss_changes":[1.17432266E5,1.0634467E5,1.1193203E3,1.0033028E5,1.292E3,6.3490234E1,2.0258594E2,9.7250875E4,3.131582E4,6.698242E2,4.7453125E2,4.99209E1,2.3401367E1,1.0671094E2,9.791016E1,9.941854E4,3.3912578E3,1.3622266E3,4.912834E3,2.9364453E2,0E0,2.1023828E2,1.7867188E2,2.7967041E1,1.426709E1,1.6484375E0,7.103882E0,3.4970703E1,4.3929688E1,2.0653809E1,2.5796387E1,1.0593838E5,2.5859062E3,2.5426172E2,7.0829297E2,6.470078E2,3.0554688E1,1.2632896E3,1.8766836E3,0E0,1.1341992E2,1.2371484E2,4.7634277E1,3.111914E1,3.8666016E1,0E0,1.661853E1,2.0486084E1,0E0,7.5493164E0,1.07421875E-1,0E0,0E0,6.2597656E0,2.1679688E0,2.9644531E1,5.6433594E1,0E0,1.3188721E1,0E0,2.2888916E1,0E0,0E0,0E0,0E0,0E0,0E0,0E0,0E0,0E0,0E0,0E0,0E0,0E0,0E0,0E0,0E0,0E0,0E0,0E0,0E0,0E0,0E0,0E0,0E0,0E0,0E0,0E0,0E0,0E0,0E0,0E0,0E0,0E0,0E0,0E0,0E0,0E0,0E0,0E0,0E0,0E0,0E0,0E0,0E0,0E0,0E0],"parents":[2147483647,0,0,1,1,2,2,3,3,4,4,5,5,6,6,7,7,8,8,9,9,10,10,11,11,12,12,13,13,14,14,15,15,16,16,17,17,18,18,19,19,21,21,22,22,23,23,24,24,25,25,26,26,27,27,28,28,29,29,30,30,31,31,32,32,33,33,34,34,35,35,36,36,37,37,38,38,40,40,41,41,42,42,43,43,44,44,46,46,47,47,49,49,50,50,53,53,54,54,55,55,56,56,58,58,60,60],"right_children":[2,4,6,8,10,12,14,16,18,20,22,24,26,28,30,32,34,36,38,40,-1,42,44,46,48,50,52,54,56,58,60,62,64,66,68,70,72,74,76,-1,78,80,82,84,86,-1,88,90,-1,92,94,-1,-1,96,98,100,102,-1,104,-1,106,-1,-1,-1,-1,-1,-1,-1,-1,-1,-1,-1,-1,-1,-1,-1,-1,-1,-1,-1,-1,-1,-1,-1,-1,-1,-1,-1,-1,-1,-1,-1,-1,-1,-1,-1,-1,-1,-1,-1,-1,-1,-1,-1,-1,-1,-1],"split_conditions":[1E0,1E0,-5E-1,1E0,-5E-1,2.005E3,2.023E3,1E0,5E0,2.023E3,-1.8369701E-16,6E0,2.023E3,-1.8369701E-16,-2.4492937E-16,1E0,6E0,4E0,-2.4492937E-16,1.995E3,6.026559E-1,2.023E3,2.002E3,1.997E3,1.999E3,6E0,2.025E3,2.004E3,2.003E3,9E0,2.024E3,1E0,-5E-1,5E0,1.1E1,2E0,2.009E3,1.1E1,-8.660254E-1,2.774827E-1,-8.660254E-1,-8.660254E-1,7E0,1.995E3,2.024E3,3.347728E-1,2.001E3,1.997E3,2.274864E-1,2.009E3,2.007E3,3.5861292E-1,2.7406123E-1,1.999E3,2.009E3,-8.660254E-1,-5E-1,4.0105507E-1,1.1E1,3.4272274E-1,2.025E3,-9.186006E-2,2.5240967E-1,1.6875789E-1,2.9045632E-1,3.5615486E-1,2.908724E-1,1.9754994E-1,2.7755988E-1,5.1693416E-1,6.311385E-1,4.1270328E-1,4.632151E-1,6.643893E-2,2.1095125E-1,1.4959924E-1,3.3962065E-1,4.1993833E-1,3.6422133E-1,2.2099414E-1,2.6993513E-1,3.3379218E-1,4.6785092E-1,2.6586154E-1,3.0137387E-1,3.2968697E-1,3.8354468E-1,2.3387311E-1,3.0741197E-1,2.489988E-1,3.1307453E-1,2.705018E-1,3.192576E-1,3.1855786E-1,2.8535795E-1,3.2780647E-1,2.9406452E-1,3.7335655E-1,3.438463E-1,3.2150212E-1,3.6242828E-1,4.022239E-1,3.686004E-1,5.5746585E-1,4.453252E-1,4.5795664E-1,3.656365E-1],"split_indices":[16,21,28,9,27,0,0,20,1,0,28,1,0,28,27,22,1,1,27,0,0,0,0,0,0,1,0,0,0,1,0,19,28,1,1,1,0,1,28,0,27,28,1,0,0,0,0,0,0,0,0,0,0,0,0,27,27,0,1,0,0,0,0,0,0,0,0,0,0,0,0,0,0,0,0,0,0,0,0,0,0,0,0,0,0,0,0,0,0,0,0,0,0,0,0,0,0,0,0,0,0,0,0,0,0,0,0],"split_type":[0,0,0,0,0,0,0,0,0,0,0,0,0,0,0,0,0,0,0,0,0,0,0,0,0,0,0,0,0,0,0,0,0,0,0,0,0,0,0,0,0,0,0,0,0,0,0,0,0,0,0,0,0,0,0,0,0,0,0,0,0,0,0,0,0,0,0,0,0,0,0,0,0,0,0,0,0,0,0,0,0,0,0,0,0,0,0,0,0,0,0,0,0,0,0,0,0,0,0,0,0,0,0,0,0,0,0],"sum_hessian":[2.33328E5,2.23985E5,9.343E3,2.14656E5,9.329E3,2.359E3,6.984E3,2.05316E5,9.34E3,2.317E3,7.012E3,9.89E2,1.37E3,6.51E3,4.74E2,1.96003E5,9.313E3,3.079E3,6.261E3,2.187E3,1.3E2,3.167E3,3.845E3,3.31E2,6.58E2,1.208E3,1.62E2,1.456E3,5.054E3,1.76E2,2.98E2,1.86676E5,9.327E3,3.904E3,5.409E3,2.3E3,7.79E2,3.903E3,2.358E3,3.24E2,1.863E3,2.94E3,2.27E2,1.278E3,2.567E3,1.55E2,1.76E2,3.94E2,2.64E2,4.06E2,8.02E2,1.3E2,3.2E1,6.25E2,8.31E2,1.995E3,3.059E3,4E1,1.36E2,1.07E2,1.91E2,1.77264E5,9.412E3,2.334E3,6.993E3,3.125E3,7.79E2,3.841E3,1.568E3,8.02E2,1.498E3,4.14E2,3.65E2,3.155E3,7.48E2,7.78E2,1.58E3,6.15E2,1.248E3,7.2E2,2.22E3,1.87E2,4E1,5.37E2,7.41E2,2.383E3,1.84E2,9.8E1,7.8E1,3.1E2,8.4E1,9.2E1,3.14E2,8.5E1,7.17E2,4.06E2,2.19E2,2.31E2,6E2,2.96E2,1.699E3,8.76E2,2.183E3,8.7E1,4.9E1,1.08E2,8.3E1],"tree_param":{"num_deleted":"0","num_feature":"33","num_nodes":"107","size_leaf_vector":"1"}},{"base_weights":[-2.4911815E-3,-1.5477638E-1,3.6628861E0,-1.9834919E-2,-3.2849696E0,5.0104246E0,2.9944885E0,1.2308135E-1,-3.1309085E0,-3.4462469E0,-2.8419874E0,4.44005E0,6.4618306E0,2.5606716E0,4.3321896E0,2.6164222E-1,-2.7912648E0,-3.2245996E0,-2.8778358E0,-3.7254014E0,-3.1617496E0,-2.9806044E0,-2.4384112E0,4.5412107E0,4.1170698E-1,6.1381793E0,7.2020073E0,3.6826172E0,2.3297539E0,3.9316795E0,5.6708875E0,4.0878788E-1,-2.6444964E0,-3.0570097E0,-2.4124935E0,-3.3566778E0,-3.0403225E0,-2.7411728E0,-2.9649668E0,-3.862513E0,-3.537694E0,-3.2503543E0,-2.9795456E0,-3.1414843E0,-2.7432475E0,-1.7926214E0,-2.7787302E0,4.2242002E0,4.6509013E0,5.857376E-1,6.9110894E0,7.4687785E-1,6.3127804E-1,3.321941E0,4.4956818E-1,1.7568477E0,3.1946259E0,3.5038724E0,4.3520727E0,4.9808922E-1,6.364054E-1,5.6207813E-2,-2.507411E-1,-3.2561725E-1,-7.098623E-2,-2.9753235E-1,-3.307611E-1,-2.920297E-1,-2.3447938E-1,-3.1598204E-1,-3.4344777E-1,-3.1554377E-1,-2.9241395E-1,-2.9048112E-1,-2.4125758E-1,-2.551396E-1,-3.0075163E-1,-3.605685E-1,-4.2470837E-1,-3.3358106E-1,-3.7719023E-1,-3.3866808E-1,-3.1332028E-1,-3.240465E-1,-2.9097065E-1,-2.7110073E-1,-3.2138667E-1,-2.822455E-1,-2.2618413E-1,-1.5061937E-1,-1.9786723E-1,-2.6034132E-1,-3.1994173E-1,4.6852228E-1,3.8343766E-1,5.923051E-1,4.4947252E-1,5.36949E-1,7.122539E-1,3.7097105E-1,3.098363E-1,1.6001987E-1,2.1377245E-1,2.92157E-1,3.8737446E-1,3.447088E-1,4.1263008E-1,4.2883697E-1,5.04221E-1],"categories":[],"categories_nodes":[],"categories_segments":[],"categories_sizes":[],"default_left":[0,0,0,0,0,0,0,0,0,0,0,0,0,0,0,0,0,0,0,0,0,0,0,0,0,0,0,0,0,0,0,0,0,0,0,0,0,0,0,0,0,0,0,0,0,0,0,0,0,0,0,0,0,0,0,0,0,0,0,0,0,0,0,0,0,0,0,0,0,0,0,0,0,0,0,0,0,0,0,0,0,0,0,0,0,0,0,0,0,0,0,0,0,0,0,0,0,0,0,0,0,0,0,0,0,0,0,0,0],"id":16,"left_children":[1,3,5,7,9,11,13,15,17,19,21,23,25,27,29,31,33,35,37,39,41,43,45,47,-1,49,51,53,55,57,59,61,63,65,67,69,71,73,75,77,79,81,83,85,87,89,91,93,95,-1,97,-1,-1,99,-1,101,103,105,107,-1,-1,-1,-1,-1,-1,-1,-1,-1,-1,-1,-1,-1,-1,-1,-1,-1,-1,-1,-1,-1,-1,-1,-1,-1,-1,-1,-1,-1,-1,-1,-1,-1,-1,-1,-1,-1,-1,-1,-1,-1,-1,-1,-1,-1,-1,-1,-1,-1,-1],"loss_changes":[1.3009454E5,9.451921E4,8.358719E3,9.5382695E4,6.5090625E2,2.5219062E3,3.5967422E3,8.282426E4,2.1411719E2,5.2628125E2,1.3113477E2,5.3671875E1,1.6348828E2,1.2083066E3,7.932051E2,8.372805E4,9.296406E2,1.5696094E2,2.2296875E1,7.4203125E1,4.4589844E1,6.1529297E1,1.3523462E2,3.866797E1,0E0,9.191211E1,1.40546875E1,2.1966797E2,1.9258105E3,1.9589258E2,1.3474316E2,8.330895E4,1.1163961E4,1.0207422E2,1.2526758E2,5.026953E1,2.9263672E1,4.7193848E1,1.9566406E1,1.784707E2,5.611914E1,2.533789E1,1.0833984E1,2.5189453E1,2.2213867E1,8.903442E0,2.235205E1,6.1470215E1,2.1894727E2,0E0,1.2933105E1,0E0,0E0,3.6882324E1,0E0,1.3661084E2,2.7648047E2,6.522949E0,4.2285156E0,0E0,0E0,0E0,0E0,0E0,0E0,0E0,0E0,0E0,0E0,0E0,0E0,0E0,0E0,0E0,0E0,0E0,0E0,0E0,0E0,0E0,0E0,0E0,0E0,0E0,0E0,0E0,0E0,0E0,0E0,0E0,0E0,0E0,0E0,0E0,0E0,0E0,0E0,0E0,0E0,0E0,0E0,0E0,0E0,0E0,0E0,0E0,0E0,0E0,0E0],"parents":[2147483647,0,0,1,1,2,2,3,3,4,4,5,5,6,6,7,7,8,8,9,9,10,10,11,11,12,12,13,13,14,14,15,15,16,16,17,17,18,18,19,19,20,20,21,21,22,22,23,23,25,25,26,26,27,27,28,28,29,29,30,30,31,31,32,32,33,33,34,34,35,35,36,36,37,37,38,38,39,39,40,40,41,41,42,42,43,43,44,44,45,45,46,46,47,47,48,48,50,50,53,53,55,55,56,56,57,57,58,58],"right_children":[2,4,6,8,10,12,14,16,18,20,22,24,26,28,30,32,34,36,38,40,42,44,46,48,-1,50,52,54,56,58,60,62,64,66,68,70,72,74,76,78,80,82,84,86,88,90,92,94,96,-1,98,-1,-1,100,-1,102,104,106,108,-1,-1,-1,-1,-1,-1,-1,-1,-1,-1,-1,-1,-1,-1,-1,-1,-1,-1,-1,-1,-1,-1,-1,-1,-1,-1,-1,-1,-1,-1,-1,-1,-1,-1,-1,-1,-1,-1,-1,-1,-1,-1,-1,-1,-1,-1,-1,-1,-1,-1],"split_conditions":[1E0,1E0,5E0,1E0,2.016E3,2.016E3,1.1E1,1E0,2.016E3,6.123234E-17,2.023E3,4E0,2.023E3,6E0,2.017E3,1E0,8E0,5E-1,-2.4492937E-16,2.005E3,1.1E1,8E0,-2.4492937E-16,1.997E3,4.1170698E-1,1E0,4E0,2.015E3,9E0,1.2E1,1.2E1,1E0,2.017E3,2.017E3,1.994E3,5E0,2.003E3,2.022E3,2.017E3,1.999E3,2.011E3,2.002E3,1.995E3,2.017E3,2.022E3,9E0,2.025E3,1.993E3,1.999E3,5.857376E-1,2.017E3,7.4687785E-1,6.3127804E-1,1.999E3,4.4956818E-1,2.015E3,2.015E3,2.015E3,2.015E3,4.9808922E-1,6.364054E-1,5.6207813E-2,-2.507411E-1,-3.2561725E-1,-7.098623E-2,-2.9753235E-1,-3.307611E-1,-2.920297E-1,-2.3447938E-1,-3.1598204E-1,-3.4344777E-1,-3.1554377E-1,-2.9241395E-1,-2.9048112E-1,-2.4125758E-1,-2.551396E-1,-3.0075163E-1,-3.605685E-1,-4.2470837E-1,-3.3358106E-1,-3.7719023E-1,-3.3866808E-1,-3.1332028E-1,-3.240465E-1,-2.9097065E-1,-2.7110073E-1,-3.2138667E-1,-2.822455E-1,-2.2618413E-1,-1.5061937E-1,-1.9786723E-1,-2.6034132E-1,-3.1994173E-1,4.6852228E-1,3.8343766E-1,5.923051E-1,4.4947252E-1,5.36949E-1,7.122539E-1,3.7097105E-1,3.098363E-1,1.6001987E-1,2.1377245E-1,2.92157E-1,3.8737446E-1,3.447088E-1,4.1263008E-1,4.2883697E-1,5.04221E-1],"split_indices":[15,11,1,7,0,0,1,23,0,28,0,1,0,1,0,13,1,28,27,0,1,1,27,0,0,27,1,0,1,1,1,10,0,0,0,1,0,0,0,0,0,0,0,0,0,1,0,0,0,0,0,0,0,0,0,0,0,0,0,0,0,0,0,0,0,0,0,0,0,0,0,0,0,0,0,0,0,0,0,0,0,0,0,0,0,0,0,0,0,0,0,0,0,0,0,0,0,0,0,0,0,0,0,0,0,0,0,0,0],"split_type":[0,0,0,0,0,0,0,0,0,0,0,0,0,0,0,0,0,0,0,0,0,0,0,0,0,0,0,0,0,0,0,0,0,0,0,0,0,0,0,0,0,0,0,0,0,0,0,0,0,0,0,0,0,0,0,0,0,0,0,0,0,0,0,0,0,0,0,0,0,0,0,0,0,0,0,0,0,0,0,0,0,0,0,0,0,0,0,0,0,0,0,0,0,0,0,0,0,0,0,0,0,0,0,0,0,0,0,0,0],"sum_hessian":[2.33066E5,2.2377E5,9.296E3,2.14523E5,9.247E3,3.08E3,6.216E3,2.05102E5,9.421E3,6.774E3,2.473E3,2.214E3,8.66E2,4.696E3,1.52E3,1.95794E5,9.308E3,6.867E3,2.554E3,3.413E3,3.361E3,1.836E3,6.37E2,1.676E3,5.38E2,6.09E2,2.57E2,7.99E2,3.897E3,1.173E3,3.47E2,1.86359E5,9.435E3,5.466E3,3.842E3,3.99E3,2.877E3,1.007E3,1.547E3,1.961E3,1.452E3,2.25E3,1.111E3,1.087E3,7.49E2,2.22E2,4.15E2,4.41E2,1.235E3,4.53E2,1.56E2,1.92E2,6.5E1,5.57E2,2.42E2,2.346E3,1.551E3,5.86E2,5.87E2,1.78E2,1.69E2,1.77053E5,9.306E3,7.168E3,2.267E3,4.132E3,1.334E3,4.47E2,3.395E3,1.142E3,2.848E3,1.432E3,1.445E3,6.67E2,3.4E2,1.5E2,1.397E3,1.182E3,7.79E2,7.88E2,6.64E2,1.027E3,1.223E3,2.25E2,8.86E2,1.62E2,9.25E2,6.39E2,1.1E2,9.1E1,1.31E2,2.98E2,1.17E2,1.97E2,2.44E2,1.31E2,1.104E3,2.2E1,1.34E2,1.98E2,3.59E2,1.666E3,6.8E2,1.11E3,4.41E2,5.43E2,4.3E1,5.44E2,4.3E1],"tree_param":{"num_deleted":"0","num_feature":"33","num_nodes":"109","size_leaf_vector":"1"}},{"base_weights":[1.8339606E-4,-1.3572226E-1,3.2821724E0,-2.766829E-1,3.0889115E0,4.499418E0,2.6877768E0,-4.189308E-1,2.8369172E0,2.5691674E0,3.262361E0,3.9793842E0,5.83835E0,2.2918708E0,3.8876004E0,-5.720278E-1,2.7858841E0,3.1185532E0,1.9518201E0,2.4300292E0,2.7256076E0,3.219416E0,3.8334634E0,4.0712714E0,3.682826E-1,5.5158772E0,6.6006577E-1,3.3311803E0,2.0850704E0,3.4465718E0,4.9690475E0,-7.2937757E-1,2.5673132E0,2.5278199E0,3.154638E0,3.0276177E0,3.86823E0,2.6603415E0,1.3831134E0,2.625757E0,2.3231041E0,2.6858096E0,3.1043022E0,3.002701E0,3.2810116E0,3.483284E0,4.365315E0,3.781904E0,4.168726E0,5.6939006E0,4.9261184E0,2.9918358E0,4.0811226E-1,1.5695051E0,2.8660345E0,3.062869E0,3.8137832E0,4.3771195E0,5.538693E0,-8.9293145E-2,2.3930886E-1,4.9108353E-1,1.3996501E-1,2.4803224E-1,3.4613556E-1,2.9758096E-1,4.243624E-1,3.734989E-1,2.9603252E-1,3.717477E-1,4.2840186E-1,2.4081218E-1,2.7775452E-1,1.2037629E-1,1.9072716E-1,3.077701E-1,2.4904266E-1,2.2392331E-1,2.6104686E-1,2.8449398E-1,2.6007617E-1,3.407168E-1,2.4617958E-1,2.8215834E-1,3.1358013E-1,3.1527504E-1,3.3630428E-1,3.916645E-1,3.343118E-1,4.9805933E-1,3.7679118E-1,4.2234156E-1,3.4312794E-1,5.276218E-1,4.0257367E-1,4.9715635E-1,6.045783E-1,3.8319823E-1,5.078062E-1,3.212311E-1,2.675624E-1,1.4350165E-1,1.8999486E-1,2.614338E-1,3.5074916E-1,3.1876156E-1,2.862272E-1,3.9419663E-1,3.522699E-1,3.784035E-1,4.6128985E-1,4.5773554E-1,5.756013E-1],"categories":[],"categories_nodes":[],"categories_segments":[],"categories_sizes":[],"default_left":[0,0,0,0,0,0,0,0,0,0,0,0,0,0,0,0,0,0,0,0,0,0,0,0,0,0,0,0,0,0,0,0,0,0,0,0,0,0,0,0,0,0,0,0,0,0,0,0,0,0,0,0,0,0,0,0,0,0,0,0,0,0,0,0,0,0,0,0,0,0,0,0,0,0,0,0,0,0,0,0,0,0,0,0,0,0,0,0,0,0,0,0,0,0,0,0,0,0,0,0,0,0,0,0,0,0,0,0,0,0,0,0,0],"id":17,"left_children":[1,3,5,7,9,11,13,15,17,19,21,23,25,27,29,31,33,35,37,39,41,43,45,47,-1,49,-1,51,53,55,57,59,61,63,65,67,69,71,73,75,77,79,81,83,85,87,89,91,93,95,97,99,-1,101,103,105,107,109,111,-1,-1,-1,-1,-1,-1,-1,-1,-1,-1,-1,-1,-1,-1,-1,-1,-1,-1,-1,-1,-1,-1,-1,-1,-1,-1,-1,-1,-1,-1,-1,-1,-1,-1,-1,-1,-1,-1,-1,-1,-1,-1,-1,-1,-1,-1,-1,-1,-1,-1,-1,-1,-1,-1],"loss_changes":[1.0395251E5,1.0172334E5,6.6928125E3,9.4967125E4,8.3658594E2,2.0927969E3,2.9499766E3,1.0060889E5,2.329125E3,4.452832E1,1.5992969E2,4.4734375E1,1.7204883E2,1.00021484E3,7.1928125E2,9.667367E4,8.816953E2,4.7264844E2,9.085781E2,2.0123535E1,8.211426E0,7.74375E1,7.530859E1,3.1160156E1,0E0,3.5154297E1,0E0,1.8527344E2,1.5702188E3,1.433086E2,1.25805664E2,9.517563E4,2.555425E4,2.3550781E2,7.3615625E2,2.9078125E2,3.202539E1,2.307959E1,1.1596655E2,1.8940674E1,1.3893555E1,6.1484375E0,1.0682373E1,2.6323242E1,4.2851562E1,5.0075684E0,5.0704346E1,5.207422E1,1.7433203E2,8.584766E1,4.979492E0,2.8913086E1,0E0,1.0206494E2,2.4172754E2,4.463867E0,6.9335938E0,1.3728516E1,2.02417E1,0E0,0E0,0E0,0E0,0E0,0E0,0E0,0E0,0E0,0E0,0E0,0E0,0E0,0E0,0E0,0E0,0E0,0E0,0E0,0E0,0E0,0E0,0E0,0E0,0E0,0E0,0E0,0E0,0E0,0E0,0E0,0E0,0E0,0E0,0E0,0E0,0E0,0E0,0E0,0E0,0E0,0E0,0E0,0E0,0E0,0E0,0E0,0E0,0E0,0E0,0E0,0E0,0E0,0E0],"parents":[2147483647,0,0,1,1,2,2,3,3,4,4,5,5,6,6,7,7,8,8,9,9,10,10,11,11,12,12,13,13,14,14,15,15,16,16,17,17,18,18,19,19,20,20,21,21,22,22,23,23,25,25,27,27,28,28,29,29,30,30,31,31,32,32,33,33,34,34,35,35,36,36,37,37,38,38,39,39,40,40,41,41,42,42,43,43,44,44,45,45,46,46,47,47,48,48,49,49,50,50,51,51,53,53,54,54,55,55,56,56,57,57,58,58],"right_children":[2,4,6,8,10,12,14,16,18,20,22,24,26,28,30,32,34,36,38,40,42,44,46,48,-1,50,-1,52,54,56,58,60,62,64,66,68,70,72,74,76,78,80,82,84,86,88,90,92,94,96,98,100,-1,102,104,106,108,110,112,-1,-1,-1,-1,-1,-1,-1,-1,-1,-1,-1,-1,-1,-1,-1,-1,-1,-1,-1,-1,-1,-1,-1,-1,-1,-1,-1,-1,-1,-1,-1,-1,-1,-1,-1,-1,-1,-1,-1,-1,-1,-1,-1,-1,-1,-1,-1,-1,-1,-1,-1,-1,-1,-1],"split_conditions":[1E0,1E0,5E0,1E0,-5E-1,2.016E3,1.1E1,1E0,2.017E3,2.009E3,2.023E3,4E0,2.023E3,6E0,2.015E3,1E0,8E0,2.014E3,6E0,6E0,2.024E3,-1.8369701E-16,9E0,1.997E3,3.682826E-1,4E0,6.6006577E-1,2.015E3,9E0,1.2E1,1.2E1,1E0,5E0,2.024E3,2.02E3,1.992E3,8.660254E-1,2.02E3,2.023E3,1.994E3,2.005E3,6E0,2.025E3,2.004E3,2.003E3,2E0,1.1E1,1.993E3,1.999E3,2E0,2.017E3,2.004E3,4.0811226E-1,2.015E3,2.015E3,2.005E3,2.007E3,2.018E3,2.017E3,-8.9293145E-2,2.3930886E-1,4.9108353E-1,1.3996501E-1,2.4803224E-1,3.4613556E-1,2.9758096E-1,4.243624E-1,3.734989E-1,2.9603252E-1,3.717477E-1,4.2840186E-1,2.4081218E-1,2.7775452E-1,1.2037629E-1,1.9072716E-1,3.077701E-1,2.4904266E-1,2.2392331E-1,2.6104686E-1,2.8449398E-1,2.6007617E-1,3.407168E-1,2.4617958E-1,2.8215834E-1,3.1358013E-1,3.1527504E-1,3.3630428E-1,3.916645E-1,3.343118E-1,4.9805933E-1,3.7679118E-1,4.2234156E-1,3.4312794E-1,5.276218E-1,4.0257367E-1,4.9715635E-1,6.045783E-1,3.8319823E-1,5.078062E-1,3.212311E-1,2.675624E-1,1.4350165E-1,1.8999486E-1,2.614338E-1,3.5074916E-1,3.1876156E-1,2.862272E-1,3.9419663E-1,3.522699E-1,3.784035E-1,4.6128985E-1,4.5773554E-1,5.756013E-1],"split_indices":[15,16,1,26,28,0,1,21,0,0,0,1,0,1,0,9,1,0,1,1,0,28,1,0,0,1,0,0,1,1,1,20,1,0,0,0,28,0,0,0,0,1,0,0,0,1,1,0,0,1,0,0,0,0,0,0,0,0,0,0,0,0,0,0,0,0,0,0,0,0,0,0,0,0,0,0,0,0,0,0,0,0,0,0,0,0,0,0,0,0,0,0,0,0,0,0,0,0,0,0,0,0,0,0,0,0,0,0,0,0,0,0,0],"split_type":[0,0,0,0,0,0,0,0,0,0,0,0,0,0,0,0,0,0,0,0,0,0,0,0,0,0,0,0,0,0,0,0,0,0,0,0,0,0,0,0,0,0,0,0,0,0,0,0,0,0,0,0,0,0,0,0,0,0,0,0,0,0,0,0,0,0,0,0,0,0,0,0,0,0,0,0,0,0,0,0,0,0,0,0,0,0,0,0,0,0,0,0,0,0,0,0,0,0,0,0,0,0,0,0,0,0,0,0,0,0,0,0,0],"sum_hessian":[2.33054E5,2.23788E5,9.266E3,2.14416E5,9.372E3,3.038E3,6.228E3,2.05049E5,9.367E3,2.349E3,7.023E3,2.191E3,8.47E2,4.685E3,1.543E3,1.95701E5,9.348E3,7.104E3,2.263E3,1.252E3,1.097E3,6.538E3,4.85E2,1.663E3,5.28E2,6.01E2,2.46E2,7.75E2,3.91E3,1.099E3,4.44E2,1.86361E5,9.34E3,5.504E3,3.844E3,6.34E3,7.64E2,1.006E3,1.257E3,4.34E2,8.18E2,1E3,9.7E1,1.458E3,5.08E3,2.97E2,1.88E2,4.29E2,1.234E3,4.55E2,1.46E2,5.37E2,2.38E2,2.357E3,1.553E3,5.42E2,5.57E2,2.22E2,2.22E2,1.77086E5,9.275E3,3.105E3,6.235E3,5.241E3,2.63E2,3.305E3,5.39E2,5.46E2,5.794E3,5.68E2,1.96E2,3.26E2,6.8E2,9.39E2,3.18E2,9.5E1,3.39E2,6.4E2,1.78E2,3.37E2,6.63E2,6.3E1,3.4E1,6.27E2,8.31E2,1.997E3,3.083E3,6.6E1,2.31E2,8.9E1,9.9E1,1.85E2,2.44E2,1.37E2,1.097E3,1.54E2,3.01E2,2.1E1,1.25E2,3.11E2,2.26E2,1.679E3,6.78E2,1.119E3,4.34E2,3.25E2,2.17E2,3.78E2,1.79E2,6.8E1,1.54E2,4.5E1,1.77E2],"tree_param":{"num_deleted":"0","num_feature":"33","num_nodes":"113","size_leaf_vector":"1"}},{"base_weights":[3.6323501E-3,-1.1308989E-1,2.7878056E0,-2.2935241E-1,2.5638463E0,2.311685E0,2.9469743E0,-3.5436723E-1,2.50965E0,2.818275E0,1.7604748E0,2.1335046E0,2.4408925E0,2.9027898E0,3.5286858E0,-4.848217E-1,2.387205E0,3.0631826E0,2.3234634E0,2.693506E0,3.256918E0,1.0238693E0,2.2413669E0,2.4039419E0,1.9905224E0,2.3949468E0,2.765028E0,2.6772478E0,2.9669127E0,4.2477414E-1,3.2552302E0,-6.243076E-1,2.3270664E0,3.228097E0,2.1054802E0,2.9388304E0,5.006068E-1,2.0217717E0,2.4777505E0,3.023351E0,2.4922714E0,3.1884673E0,3.9792672E-1,8.618081E-1,1.4996939E0,2.4020336E0,1.7695465E0,2.8223078E0,2.2301986E0,2.096084E0,1.8187366E0,2.5121331E0,2.3335762E-1,2.8956977E-1,2.1664806E-1,2.4805815E0,2.8197277E0,2.855481E0,3.0373724E0,3.5362542E-1,2.9851756E0,-7.789191E-2,2.3025821E-1,4.4163176E-1,1.2835878E-1,2.5288177E-1,4.1715488E-1,1.5612362E-1,2.3818548E-1,2.2317444E-1,3.133501E-1,1.9494882E-1,2.965797E-1,2.2027901E-1,2.61599E-1,3.3853227E-1,2.8950307E-1,1.8751876E-1,2.7604577E-1,2.9816434E-1,3.3899787E-1,9.44606E-2,4.362204E-2,2.611485E-1,3.8446985E-2,2.2940639E-1,2.602874E-1,1.3801903E-1,1.8940438E-1,2.3531714E-1,3.2068503E-1,2.0772922E-1,2.4985397E-1,1.9763342E-1,2.4768065E-1,1.661898E-1,1.965042E-1,2.1630359E-1,2.5972506E-1,2.2863518E-1,2.5773275E-1,2.8517854E-1,2.1921392E-1,2.514421E-1,2.911713E-1,3.2196698E-1,2.9108793E-1,2.4804966E-1,3.2102507E-1],"categories":[],"categories_nodes":[],"categories_segments":[],"categories_sizes":[],"default_left":[0,0,0,0,0,0,0,0,0,0,0,0,0,0,0,0,0,0,0,0,0,0,0,0,0,0,0,0,0,0,0,0,0,0,0,0,0,0,0,0,0,0,0,0,0,0,0,0,0,0,0,0,0,0,0,0,0,0,0,0,0,0,0,0,0,0,0,0,0,0,0,0,0,0,0,0,0,0,0,0,0,0,0,0,0,0,0,0,0,0,0,0,0,0,0,0,0,0,0,0,0,0,0,0,0,0,0,0,0],"id":18,"left_children":[1,3,5,7,9,11,13,15,17,19,21,23,25,27,29,31,33,35,37,39,41,43,45,47,49,51,53,55,57,-1,59,61,63,65,67,69,-1,71,73,75,77,79,-1,81,83,85,87,89,91,93,95,97,-1,-1,-1,99,101,103,105,-1,107,-1,-1,-1,-1,-1,-1,-1,-1,-1,-1,-1,-1,-1,-1,-1,-1,-1,-1,-1,-1,-1,-1,-1,-1,-1,-1,-1,-1,-1,-1,-1,-1,-1,-1,-1,-1,-1,-1,-1,-1,-1,-1,-1,-1,-1,-1,-1,-1],"loss_changes":[7.570192E4,6.958294E4,7.035078E2,7.337E4,1.8971914E3,4.896289E1,1.7021484E2,7.328978E4,9.568086E2,3.779414E2,7.915293E2,3.37666E1,1.3587402E1,8.650781E1,8.271777E1,7.672334E4,2.1982695E3,5.532949E2,3.2096094E2,3.58E2,6.4447266E1,6.7106445E1,9.84668E1,1.8419678E1,8.119873E0,2.739746E0,6.3968506E0,3.3804688E1,3.1183594E1,0E0,1.6764893E1,8.433819E4,2.0149254E4,1.5292754E3,1.0454258E3,2.9748828E2,0E0,1.5628223E2,1.7018945E2,8.69043E1,5.618047E2,4.9492188E1,0E0,2.298584E1,2.767327E2,1.5886719E1,1.4254761E1,9.7724E0,4.862549E0,1.3387207E1,2.65448E0,6.208496E0,0E0,0E0,0E0,5.7578125E0,1.0587891E1,3.070996E1,6.1972656E1,0E0,1.3619263E1,0E0,0E0,0E0,0E0,0E0,0E0,0E0,0E0,0E0,0E0,0E0,0E0,0E0,0E0,0E0,0E0,0E0,0E0,0E0,0E0,0E0,0E0,0E0,0E0,0E0,0E0,0E0,0E0,0E0,0E0,0E0,0E0,0E0,0E0,0E0,0E0,0E0,0E0,0E0,0E0,0E0,0E0,0E0,0E0,0E0,0E0,0E0,0E0],"parents":[2147483647,0,0,1,1,2,2,3,3,4,4,5,5,6,6,7,7,8,8,9,9,10,10,11,11,12,12,13,13,14,14,15,15,16,16,17,17,18,18,19,19,20,20,21,21,22,22,23,23,24,24,25,25,26,26,27,27,28,28,30,30,31,31,32,32,33,33,34,34,35,35,37,37,38,38,39,39,40,40,41,41,43,43,44,44,45,45,46,46,47,47,48,48,49,49,50,50,51,51,55,55,56,56,57,57,58,58,60,60],"right_children":[2,4,6,8,10,12,14,16,18,20,22,24,26,28,30,32,34,36,38,40,42,44,46,48,50,52,54,56,58,-1,60,62,64,66,68,70,-1,72,74,76,78,80,-1,82,84,86,88,90,92,94,96,98,-1,-1,-1,100,102,104,106,-1,108,-1,-1,-1,-1,-1,-1,-1,-1,-1,-1,-1,-1,-1,-1,-1,-1,-1,-1,-1,-1,-1,-1,-1,-1,-1,-1,-1,-1,-1,-1,-1,-1,-1,-1,-1,-1,-1,-1,-1,-1,-1,-1,-1,-1,-1,-1,-1,-1],"split_conditions":[1E0,1E0,-5E-1,1E0,2.017E3,2.005E3,2.023E3,1E0,-5E-1,2.011E3,-2.4492937E-16,6E0,2.023E3,-1.8369701E-16,-5E-1,1E0,-5E-1,2.023E3,-5E-1,1.998E3,1.2E1,2.023E3,6E0,1.994E3,1.999E3,6E0,2.025E3,2.004E3,2.003E3,4.2477414E-1,8.660254E-1,1E0,5E0,2.01E3,-5E-1,1.997E3,5.006068E-1,2.023E3,2.002E3,1.992E3,2.002E3,2.014E3,3.9792672E-1,2.022E3,2.024E3,2.023E3,2.019E3,1.992E3,2.001E3,1.997E3,2.002E3,2.009E3,2.3335762E-1,2.8956977E-1,2.1664806E-1,1.995E3,2.022E3,-8.660254E-1,2.011E3,3.5362542E-1,2.024E3,-7.789191E-2,2.3025821E-1,4.4163176E-1,1.2835878E-1,2.5288177E-1,4.1715488E-1,1.5612362E-1,2.3818548E-1,2.2317444E-1,3.133501E-1,1.9494882E-1,2.965797E-1,2.2027901E-1,2.61599E-1,3.3853227E-1,2.8950307E-1,1.8751876E-1,2.7604577E-1,2.9816434E-1,3.3899787E-1,9.44606E-2,4.362204E-2,2.611485E-1,3.8446985E-2,2.2940639E-1,2.602874E-1,1.3801903E-1,1.8940438E-1,2.3531714E-1,3.2068503E-1,2.0772922E-1,2.4985397E-1,1.9763342E-1,2.4768065E-1,1.661898E-1,1.965042E-1,2.1630359E-1,2.5972506E-1,2.2863518E-1,2.5773275E-1,2.8517854E-1,2.1921392E-1,2.514421E-1,2.911713E-1,3.2196698E-1,2.9108793E-1,2.4804966E-1,3.2102507E-1],"split_indices":[16,26,28,21,0,0,0,22,27,0,27,1,0,28,27,9,27,0,28,0,1,0,1,0,0,1,0,0,0,0,27,19,1,0,28,0,0,0,0,0,0,0,0,0,0,0,0,0,0,0,0,0,0,0,0,0,0,27,0,0,0,0,0,0,0,0,0,0,0,0,0,0,0,0,0,0,0,0,0,0,0,0,0,0,0,0,0,0,0,0,0,0,0,0,0,0,0,0,0,0,0,0,0,0,0,0,0,0,0],"split_type":[0,0,0,0,0,0,0,0,0,0,0,0,0,0,0,0,0,0,0,0,0,0,0,0,0,0,0,0,0,0,0,0,0,0,0,0,0,0,0,0,0,0,0,0,0,0,0,0,0,0,0,0,0,0,0,0,0,0,0,0,0,0,0,0,0,0,0,0,0,0,0,0,0,0,0,0,0,0,0,0,0,0,0,0,0,0,0,0,0,0,0,0,0,0,0,0,0,0,0,0,0,0,0,0,0,0,0,0,0],"sum_hessian":[2.32945E5,2.23573E5,9.372E3,2.14268E5,9.305E3,2.352E3,7.02E3,2.04916E5,9.352E3,7.065E3,2.24E3,9.96E2,1.356E3,6.53E3,4.9E2,1.95609E5,9.307E3,2.35E3,7.002E3,5.506E3,1.559E3,8.86E2,1.354E3,3.39E2,6.57E2,1.195E3,1.61E2,1.455E3,5.075E3,1.31E2,3.59E2,1.86365E5,9.244E3,2.333E3,6.974E3,2.211E3,1.39E2,2.374E3,4.628E3,2.081E3,3.425E3,1.429E3,1.3E2,6.63E2,2.23E2,1.007E3,3.47E2,9.5E1,2.44E2,4E2,2.57E2,3.97E2,7.98E2,1.29E2,3.2E1,6.19E2,8.36E2,1.982E3,3.093E3,1.7E2,1.89E2,1.77015E5,9.35E3,3.078E3,6.166E3,1.342E3,9.91E2,2.351E3,4.623E3,4.8E2,1.731E3,2.208E3,1.66E2,1.554E3,3.074E3,5.38E2,1.543E3,1.04E3,2.385E3,7.13E2,7.16E2,5.54E2,1.09E2,1.11E2,1.12E2,6.63E2,3.44E2,8.7E1,2.6E2,4.6E1,4.9E1,1.61E2,8.3E1,3.09E2,9.1E1,1.3E2,1.27E2,8.3E1,3.14E2,2.14E2,4.05E2,7.92E2,4.4E1,2.87E2,1.695E3,1.257E3,1.836E3,6.2E1,1.27E2],"tree_param":{"num_deleted":"0","num_feature":"33","num_nodes":"109","size_leaf_vector":"1"}},{"base_weights":[-3.1012818E-3,-1.2841944E-1,3.0408688E0,-1.3546513E-2,-2.7779846E0,4.1380644E0,2.4968543E0,1.06727324E-1,-2.6508234E0,-2.9215035E0,-2.3858743E0,3.6583345E0,5.3659344E0,2.1478596E0,3.586112E0,2.2182518E-1,-2.307662E0,-2.7266889E0,-2.4446511E0,-3.2188973E0,-2.7062433E0,-2.517965E0,-2.0084302E0,3.5594876E0,3.9271426E0,5.127976E0,6.0461545E0,3.077889E0,1.9572684E0,3.2664037E0,4.7117023E0,3.4790257E-1,-2.3002331E0,-2.800079E0,-7.441531E-1,-2.8977005E0,-2.60554E0,-2.489248E0,-2.1985998E0,-2.9438865E0,-3.3965456E0,-2.8148444E0,-2.5624201E0,-2.6562238E0,-2.3107228E0,-2.4589891E0,-1.5773721E0,3.6627781E0,3.3186576E0,3.9916878E0,3.1088695E-1,4.871781E-1,5.687643E-1,4.3631297E-1,6.195631E-1,2.7945702E0,3.7217408E-1,1.5044522E0,2.6627157E0,2.921151E0,3.5962248E0,4.082172E0,5.2658194E-1,4.835445E-2,-2.2139482E-1,-2.4385893E-1,-4.453164E-2,-3.1792876E-1,-1.6984385E-1,-1.3447842E-1,1.1774596E-1,-2.697077E-1,-3.0262023E-1,-2.7556264E-1,-2.5487766E-1,-2.5209132E-1,-2.327098E-1,-1.9573106E-1,-2.724468E-1,-2.4528138E-1,-3.00221E-1,-3.6111972E-1,-3.104578E-1,-2.8927836E-1,-2.7453128E-1,-2.9134625E-1,-2.4977966E-1,-2.2644864E-1,-2.7209792E-1,-2.3778592E-1,-1.8921046E-1,-2.9426464E-1,-2.1728829E-1,-1.4269987E-1,-1.9179833E-1,3.4714946E-1,4.0300885E-1,2.2417831E-1,3.6715898E-1,3.6622608E-1,4.1059142E-1,2.864406E-1,1.980291E-1,1.3627309E-1,1.7822589E-1,2.564284E-1,4.1223866E-1,2.866925E-1,3.4961018E-1,3.5382637E-1,4.1663218E-1,3.0286664E-1,4.2043874E-1],"categories":[],"categories_nodes":[],"categories_segments":[],"categories_sizes":[],"default_left":[0,0,0,0,0,0,0,0,0,0,0,0,0,0,0,0,0,0,0,0,0,0,0,0,0,0,0,0,0,0,0,0,0,0,0,0,0,0,0,0,0,0,0,0,0,0,0,0,0,0,0,0,0,0,0,0,0,0,0,0,0,0,0,0,0,0,0,0,0,0,0,0,0,0,0,0,0,0,0,0,0,0,0,0,0,0,0,0,0,0,0,0,0,0,0,0,0,0,0,0,0,0,0,0,0,0,0,0,0,0,0,0,0],"id":19,"left_children":[1,3,5,7,9,11,13,15,17,19,21,23,25,27,29,31,33,35,37,39,41,43,45,47,49,51,53,55,57,59,61,63,65,67,69,71,73,75,77,79,81,83,85,87,89,91,93,95,97,99,-1,-1,-1,-1,-1,101,-1,103,105,107,109,111,-1,-1,-1,-1,-1,-1,-1,-1,-1,-1,-1,-1,-1,-1,-1,-1,-1,-1,-1,-1,-1,-1,-1,-1,-1,-1,-1,-1,-1,-1,-1,-1,-1,-1,-1,-1,-1,-1,-1,-1,-1,-1,-1,-1,-1,-1,-1,-1,-1,-1,-1],"loss_changes":[8.8841234E4,6.808177E4,5.4864297E3,6.800444E4,5.1610156E2,1.7775469E3,2.3336133E3,5.6979844E4,1.3960156E2,4.2660938E2,1.1938574E2,4.4398438E1,1.0738867E2,8.212246E2,5.2188086E2,6.223254E4,7.1810664E3,1.3389062E2,2.2234375E1,1.2923828E2,5.4498047E1,4.6726562E1,1.2275098E2,2.806836E1,1.8276367E1,6.405859E1,2.7307129E1,1.3407227E2,1.2341357E3,1.2227051E2,9.29209E1,6.4772633E4,2.3902812E3,2.9585469E3,2.582331E3,6.458789E1,2.7105469E1,5.0703125E0,4.4914307E1,2.4885742E1,9.6896484E1,4.203125E0,3.1538086E1,2.1742676E1,1.6467041E1,3.747168E1,1.4472473E1,6.48418E1,1.8028027E2,5.0947266E0,0E0,0E0,0E0,0E0,0E0,2.5831543E1,0E0,9.060547E1,2.0695703E2,7.9038086E0,4.8203125E0,7.609619E0,0E0,0E0,0E0,0E0,0E0,0E0,0E0,0E0,0E0,0E0,0E0,0E0,0E0,0E0,0E0,0E0,0E0,0E0,0E0,0E0,0E0,0E0,0E0,0E0,0E0,0E0,0E0,0E0,0E0,0E0,0E0,0E0,0E0,0E0,0E0,0E0,0E0,0E0,0E0,0E0,0E0,0E0,0E0,0E0,0E0,0E0,0E0,0E0,0E0,0E0,0E0],"parents":[2147483647,0,0,1,1,2,2,3,3,4,4,5,5,6,6,7,7,8,8,9,9,10,10,11,11,12,12,13,13,14,14,15,15,16,16,17,17,18,18,19,19,20,20,21,21,22,22,23,23,24,24,25,25,26,26,27,27,28,28,29,29,30,30,31,31,32,32,33,33,34,34,35,35,36,36,37,37,38,38,39,39,40,40,41,41,42,42,43,43,44,44,45,45,46,46,47,47,48,48,49,49,55,55,57,57,58,58,59,59,60,60,61,61],"right_children":[2,4,6,8,10,12,14,16,18,20,22,24,26,28,30,32,34,36,38,40,42,44,46,48,50,52,54,56,58,60,62,64,66,68,70,72,74,76,78,80,82,84,86,88,90,92,94,96,98,100,-1,-1,-1,-1,-1,102,-1,104,106,108,110,112,-1,-1,-1,-1,-1,-1,-1,-1,-1,-1,-1,-1,-1,-1,-1,-1,-1,-1,-1,-1,-1,-1,-1,-1,-1,-1,-1,-1,-1,-1,-1,-1,-1,-1,-1,-1,-1,-1,-1,-1,-1,-1,-1,-1,-1,-1,-1,-1,-1,-1,-1],"split_conditions":[1E0,1E0,5E0,1E0,2.016E3,2.016E3,1.1E1,1E0,2.016E3,-1.8369701E-16,2.023E3,1E0,1E0,6E0,2.017E3,1E0,2.017E3,-1.8369701E-16,2.024E3,6E0,1E1,8E0,6E0,2.008E3,2.014E3,2.023E3,2.017E3,2.015E3,9E0,1.2E1,1.2E1,1E0,2.023E3,1E0,1E0,6E0,1.997E3,1.1E1,2.025E3,1.993E3,2.005E3,2.002E3,1.994E3,2.017E3,2.022E3,2.024E3,-2.4492937E-16,2.002E3,2.01E3,1.997E3,3.1088695E-1,4.871781E-1,5.687643E-1,4.3631297E-1,6.195631E-1,2.013E3,3.7217408E-1,8E0,2.023E3,2.015E3,2.015E3,2.018E3,5.2658194E-1,4.835445E-2,-2.2139482E-1,-2.4385893E-1,-4.453164E-2,-3.1792876E-1,-1.6984385E-1,-1.3447842E-1,1.1774596E-1,-2.697077E-1,-3.0262023E-1,-2.7556264E-1,-2.5487766E-1,-2.5209132E-1,-2.327098E-1,-1.9573106E-1,-2.724468E-1,-2.4528138E-1,-3.00221E-1,-3.6111972E-1,-3.104578E-1,-2.8927836E-1,-2.7453128E-1,-2.9134625E-1,-2.4977966E-1,-2.2644864E-1,-2.7209792E-1,-2.3778592E-1,-1.8921046E-1,-2.9426464E-1,-2.1728829E-1,-1.4269987E-1,-1.9179833E-1,3.4714946E-1,4.0300885E-1,2.2417831E-1,3.6715898E-1,3.6622608E-1,4.1059142E-1,2.864406E-1,1.980291E-1,1.3627309E-1,1.7822589E-1,2.564284E-1,4.1223866E-1,2.866925E-1,3.4961018E-1,3.5382637E-1,4.1663218E-1,3.0286664E-1,4.2043874E-1],"split_indices":[15,11,1,7,0,0,1,5,0,28,0,27,27,1,0,8,0,28,0,1,1,1,1,0,0,0,0,0,1,1,1,13,0,29,29,1,0,1,0,0,0,0,0,0,0,0,27,0,0,0,0,0,0,0,0,0,0,1,0,0,0,0,0,0,0,0,0,0,0,0,0,0,0,0,0,0,0,0,0,0,0,0,0,0,0,0,0,0,0,0,0,0,0,0,0,0,0,0,0,0,0,0,0,0,0,0,0,0,0,0,0,0,0],"split_type":[0,0,0,0,0,0,0,0,0,0,0,0,0,0,0,0,0,0,0,0,0,0,0,0,0,0,0,0,0,0,0,0,0,0,0,0,0,0,0,0,0,0,0,0,0,0,0,0,0,0,0,0,0,0,0,0,0,0,0,0,0,0,0,0,0,0,0,0,0,0,0,0,0,0,0,0,0,0,0,0,0,0,0,0,0,0,0,0,0,0,0,0,0,0,0,0,0,0,0,0,0,0,0,0,0,0,0,0,0,0,0,0,0],"sum_hessian":[2.32893E5,2.23685E5,9.208E3,2.14391E5,9.294E3,3.05E3,6.158E3,2.05041E5,9.35E3,6.799E3,2.495E3,2.196E3,8.54E2,4.666E3,1.492E3,1.95712E5,9.329E3,6.826E3,2.524E3,